{"learner":{"attributes":{"best_iteration":"97","best_score":"0.30079309129362003","scikit_learn":"{\"_estimator_type\": \"classifier\"}"},"feature_names":["nFatJet","nJet","FatJet0_phi","FatJet0_eta","FatJet0_n2b1","FatJet0_n3b1","FatJet1_pt","FatJet1_phi","FatJet1_eta","FatJet1_msd","FatJet1_pnetMass","FatJet1_pnetTXbb","FatJet1_pnetTXcc","FatJet1_pnetTXqq","FatJet1_pnetTXgg","VBFPair_mjj","VBFPair_deta","Photon0_pt","Jet0_pt","Jet0_eta","Jet0_phi","Jet0_mass","Jet0_btagPNetB","Jet0_btagPNetCvB","Jet0_btagPNetCvL","Jet0_btagPNetQvG","Jet1_pt","Jet1_eta","Jet1_phi","Jet1_mass","Jet1_btagPNetB","Jet1_btagPNetCvB","Jet1_btagPNetCvL","Jet1_btagPNetQvG","Jet2_pt","Jet2_eta","Jet2_phi","Jet2_mass","Jet2_btagPNetB","Jet2_btagPNetCvB","Jet2_btagPNetCvL","Jet2_btagPNetQvG","Jet3_pt","Jet3_eta","Jet3_phi","Jet3_mass","Jet3_btagPNetB","Jet4_btagPNetCvB","Jet4_btagPNetCvL","Jet4_btagPNetQvG","JetClosestFatJet0_pt","JetClosestFatJet0_eta","JetClosestFatJet0_phi","JetClosestFatJet0_mass"],"feature_types":["int","int","float","float","float","float","float","float","float","float","float","float","float","float","float","float","float","float","float","float","float","float","float","float","float","float","float","float","float","float","float","float","float","float","float","float","float","float","float","float","float","float","float","float","float","float","float","float","float","float","float","float","float","float"],"gradient_booster":{"model":{"gbtree_model_param":{"num_parallel_tree":"1","num_trees":"300"},"iteration_indptr":[0,3,6,9,12,15,18,21,24,27,30,33,36,39,42,45,48,51,54,57,60,63,66,69,72,75,78,81,84,87,90,93,96,99,102,105,108,111,114,117,120,123,126,129,132,135,138,141,144,147,150,153,156,159,162,165,168,171,174,177,180,183,186,189,192,195,198,201,204,207,210,213,216,219,222,225,228,231,234,237,240,243,246,249,252,255,258,261,264,267,270,273,276,279,282,285,288,291,294,297,300],"tree_info":[0,1,2,0,1,2,0,1,2,0,1,2,0,1,2,0,1,2,0,1,2,0,1,2,0,1,2,0,1,2,0,1,2,0,1,2,0,1,2,0,1,2,0,1,2,0,1,2,0,1,2,0,1,2,0,1,2,0,1,2,0,1,2,0,1,2,0,1,2,0,1,2,0,1,2,0,1,2,0,1,2,0,1,2,0,1,2,0,1,2,0,1,2,0,1,2,0,1,2,0,1,2,0,1,2,0,1,2,0,1,2,0,1,2,0,1,2,0,1,2,0,1,2,0,1,2,0,1,2,0,1,2,0,1,2,0,1,2,0,1,2,0,1,2,0,1,2,0,1,2,0,1,2,0,1,2,0,1,2,0,1,2,0,1,2,0,1,2,0,1,2,0,1,2,0,1,2,0,1,2,0,1,2,0,1,2,0,1,2,0,1,2,0,1,2,0,1,2,0,1,2,0,1,2,0,1,2,0,1,2,0,1,2,0,1,2,0,1,2,0,1,2,0,1,2,0,1,2,0,1,2,0,1,2,0,1,2,0,1,2,0,1,2,0,1,2,0,1,2,0,1,2,0,1,2,0,1,2,0,1,2,0,1,2,0,1,2,0,1,2,0,1,2,0,1,2,0,1,2,0,1,2,0,1,2,0,1,2,0,1,2,0,1,2,0,1,2,0,1,2],"trees":[{"base_weights":[-3.3176613E-1,-4.5228204E-1,5.835029E-1,-5.7790506E-1,-2.827011E-1,7.642919E-1,1.00002214E-1,-8.975895E-2,-2.9263797E-1,-6.2982105E-2,-3.9183137E-1,9.131743E-2,4.2331636E-1,-4.985937E-2,1.2467173E-1,1.5939839E-1,-2.250162E-1,-4.3718278E-1,-1.884637E-2,-4.9776766E-3,2.1949956E-1,-3.1062383E-2,-4.5664987E-1,-8.2307965E-2,7.328153E-2,1.7680673E-2,-2.124479E-2,1.2940478E-1,2.966528E-2,-2.3566432E-1,-6.2180597E-2],"categories":[],"categories_nodes":[],"categories_segments":[],"categories_sizes":[],"default_left":[0,0,0,0,1,0,0,0,0,1,0,0,0,0,0,0,0,0,0,0,1,0,0,0,0,0,0,0,0,0,0],"id":0,"left_children":[1,3,5,7,9,11,13,-1,-1,15,17,-1,-1,-1,-1,19,-1,21,23,25,27,-1,29,-1,-1,-1,-1,-1,-1,-1,-1],"loss_changes":[8.19794E0,1.2026501E0,6.9328904E-1,2.8514862E-4,6.765549E-1,1.4512801E-1,1.3066041E-1,0E0,0E0,1.0096295E0,3.190446E-1,0E0,0E0,0E0,0E0,7.675615E-2,0E0,9.7254515E-2,9.989938E-2,6.085045E-3,2.0095527E-2,0E0,2.0398617E-2,0E0,0E0,0E0,0E0,0E0,0E0,0E0,0E0],"parents":[2147483647,0,0,1,1,2,2,3,3,4,4,5,5,6,6,9,9,10,10,15,15,17,17,18,18,19,19,20,20,22,22],"right_children":[2,4,6,8,10,12,14,-1,-1,16,18,-1,-1,-1,-1,20,-1,22,24,26,28,-1,30,-1,-1,-1,-1,-1,-1,-1,-1],"split_conditions":[3.432251E0,4.3920898E-1,5E0,-2.0512695E0,1.4266968E-3,1.3093391E3,4.1271973E0,-8.975895E-2,-2.9263797E-1,6.184375E1,2.577942E0,9.131743E-2,4.2331636E-1,-4.985937E-2,1.2467173E-1,4.4482422E-1,-2.250162E-1,8.222656E-1,4.1259766E-1,2.4597168E-1,5.4707245E1,-3.1062383E-2,4.29E2,-8.2307965E-2,7.328153E-2,1.7680673E-2,-2.124479E-2,1.2940478E-1,2.966528E-2,-2.3566432E-1,-6.2180597E-2],"split_indices":[16,25,1,51,30,15,16,0,0,9,16,0,0,0,0,13,0,39,33,4,10,0,50,0,0,0,0,0,0,0,0],"split_type":[0,0,0,0,0,0,0,0,0,0,0,0,0,0,0,0,0,0,0,0,0,0,0,0,0,0,0,0,0,0,0],"sum_hessian":[7.092846E1,6.312276E1,7.8056955E0,3.487789E1,2.8244867E1,5.258651E0,2.5470445E0,1.0941707E0,3.3783722E1,9.896579E0,1.834829E1,1.0511742E0,4.2074766E0,1.2318758E0,1.3151686E0,6.6588783E0,3.2377002E0,1.6205711E1,2.1425781E0,2.028401E0,4.630478E0,1.0064499E0,1.5199261E1,1.1414528E0,1.0011253E0,1.0049944E0,1.0234065E0,3.223489E0,1.4069885E0,1.4155512E1,1.0437487E0],"tree_param":{"num_deleted":"0","num_feature":"54","num_nodes":"31","size_leaf_vector":"1"}},{"base_weights":[-3.845521E-1,-5.197156E-1,4.3571717E-1,-5.8375007E-1,-3.195806E-1,-1.5528029E-1,8.2862693E-1,-5.9776646E-1,4.3240977E-3,-4.2833352E-1,6.0845617E-2,-1.4379488E-1,9.610409E-2,4.5967218E-1,8.7028526E-2,-3.0322796E-1,-5.638188E-2,-2.2875914E-1,-1.5486852E-2,1.6352904E-1,-1.12317316E-1],"categories":[],"categories_nodes":[],"categories_segments":[],"categories_sizes":[],"default_left":[1,1,1,1,0,0,0,1,0,0,0,0,0,0,0,0,0,0,0,0,0],"id":1,"left_children":[1,3,5,7,9,11,13,15,-1,17,19,-1,-1,-1,-1,-1,-1,-1,-1,-1,-1],"loss_changes":[8.201195E0,6.1068535E-1,2.6178446E0,3.8645458E-1,7.4135613E-1,2.9080707E-1,2.3169804E-1,1.2072563E-1,0E0,1.4319682E-1,4.32127E-1,0E0,0E0,0E0,0E0,0E0,0E0,0E0,0E0,0E0,0E0],"parents":[2147483647,0,0,1,1,2,2,3,3,4,4,5,5,6,6,7,7,9,9,10,10],"right_children":[2,4,6,8,10,12,14,16,-1,18,20,-1,-1,-1,-1,-1,-1,-1,-1,-1,-1],"split_conditions":[7.56875E1,6.296875E1,8.679199E-2,7.841797E-1,1.6418457E-1,1.4013672E-1,9.543512E1,1.7114258E-1,4.3240977E-3,4.0307617E-1,1.0555957E2,-1.4379488E-1,9.610409E-2,4.5967218E-1,8.7028526E-2,-3.0322796E-1,-5.638188E-2,-2.2875914E-1,-1.5486852E-2,1.6352904E-1,-1.12317316E-1],"split_indices":[21,9,12,32,12,13,10,40,0,13,10,0,0,0,0,0,0,0,0,0,0],"split_type":[0,0,0,0,0,0,0,0,0,0,0,0,0,0,0,0,0,0,0,0,0],"sum_hessian":[7.092846E1,6.1208893E1,9.719563E0,4.4919754E1,1.6289137E1,4.122889E0,5.5966735E0,4.3872646E1,1.0471071E0,1.2569849E1,3.7192888E0,3.1107996E0,1.0120896E0,4.560173E0,1.0365002E0,4.285444E1,1.0182086E0,1.1568766E1,1.0010829E0,1.849228E0,1.8700608E0],"tree_param":{"num_deleted":"0","num_feature":"54","num_nodes":"21","size_leaf_vector":"1"}},{"base_weights":[7.163181E-1,1.0618204E0,4.2874834E-1,1.093797E0,9.022192E-2,5.7040286E-1,-2.2241747E-1,5.549846E-1,1.5490928E-1,7.0949614E-1,-1.4135924E-1,1.6695398E-1,-3.822193E-1,8.721251E-1,4.5753652E-1,-2.8407556E-1,8.9623794E-2,1.349872E-1,-1.0267207E-2,-2.1537131E-1,-3.7671994E-2,1.3110925E-1,4.5161578E-1,5.0166976E-1,1.7978097E-1,-2.585909E-2,-1.6810966E-1,2.671888E-1,4.74009E-2,-2.5885364E-2,1.5752475E-1],"categories":[],"categories_nodes":[],"categories_segments":[],"categories_sizes":[],"default_left":[0,0,0,1,0,0,1,0,0,0,0,0,0,0,0,0,0,0,0,0,0,0,0,0,0,0,0,0,0,0,0],"id":2,"left_children":[1,3,5,7,-1,9,11,-1,-1,13,15,17,19,21,23,25,-1,-1,-1,-1,-1,-1,-1,27,29,-1,-1,-1,-1,-1,-1],"loss_changes":[6.6912727E0,7.0438385E-1,3.902513E0,4.507065E-2,0E0,3.4564009E0,5.6364167E-1,0E0,0E0,7.6976776E-1,3.4264022E-1,6.413562E-2,5.6882024E-2,7.109833E-2,7.275343E-2,4.075119E-2,0E0,0E0,0E0,0E0,0E0,0E0,0E0,9.45487E-2,1.2220977E-1,0E0,0E0,0E0,0E0,0E0,0E0],"parents":[2147483647,0,0,1,1,2,2,3,3,5,5,6,6,9,9,10,10,11,11,12,12,13,13,14,14,15,15,23,23,24,24],"right_children":[2,4,6,8,-1,10,12,-1,-1,14,16,18,20,22,24,26,-1,-1,-1,-1,-1,-1,-1,28,30,-1,-1,-1,-1,-1,-1],"split_conditions":[3.1225586E-1,3.9152832E0,7.28125E1,6.347656E-1,9.022192E-2,3.432251E0,1.083374E-1,5.549846E-1,1.5490928E-1,5.449219E-1,5E0,1.8920898E-1,9.2332214E1,4.0039062E-1,7.15625E1,1.5425842E3,8.9623794E-2,1.349872E-1,-1.0267207E-2,-2.1537131E-1,-3.7671994E-2,1.3110925E-1,4.5161578E-1,2.4454346E0,1.10321976E2,-2.585909E-2,-1.6810966E-1,2.671888E-1,4.74009E-2,-2.5885364E-2,1.5752475E-1],"split_indices":[25,16,21,32,0,16,12,0,0,33,1,13,10,31,9,15,0,0,0,0,0,0,0,16,15,0,0,0,0,0,0],"split_type":[0,0,0,0,0,0,0,0,0,0,0,0,0,0,0,0,0,0,0,0,0,0,0,0,0,0,0,0,0,0,0],"sum_hessian":[7.092846E1,3.0995882E1,3.993257E1,2.967814E1,1.3177414E0,3.289962E1,7.0329523E0,2.8670889E1,1.0072526E0,2.752403E1,5.3755894E0,2.0334687E0,4.9994836E0,1.5231435E1,1.2292597E1,3.7986057E0,1.5769838E0,1.0284224E0,1.0050462E0,3.9683635E0,1.0311201E0,1.1967317E0,1.4034703E1,9.911569E0,2.3810287E0,1.0612801E0,2.7373257E0,8.883997E0,1.0275708E0,1.1056534E0,1.2753752E0],"tree_param":{"num_deleted":"0","num_feature":"54","num_nodes":"31","size_leaf_vector":"1"}},{"base_weights":[-2.316728E-1,-3.4410915E-1,3.496801E-1,-4.379108E-1,-1.9098432E-1,4.4110438E-1,-1.019071E-1,-2.439435E-1,-2.970831E-1,-7.8894585E-2,-3.6728862E-1,-8.319442E-3,5.15924E-1,-7.61385E-3,-1.623788E-1,1.4503516E-1,-2.2779416E-1,-2.0776871E-1,-7.4194044E-2,6.0339794E-2,2.8433076E-1,3.9195947E-2,1.0348988E-1,-2.7429044E-1,1.5501929E-2,-2.0334458E-2,4.4564676E-2,-2.8700596E-2,-2.981154E-1,-1.6329852E-1,-3.3275697E-2],"categories":[],"categories_nodes":[],"categories_segments":[],"categories_sizes":[],"default_left":[0,0,0,0,1,0,0,0,1,1,0,0,0,0,0,0,0,0,0,0,0,1,0,0,0,0,0,0,0,0,0],"id":3,"left_children":[1,3,5,7,9,11,-1,-1,13,15,17,-1,19,-1,-1,21,23,-1,-1,-1,-1,25,-1,27,-1,-1,-1,-1,29,-1,-1],"loss_changes":[4.257179E0,6.8531895E-1,6.3401353E-1,8.326721E-2,4.079669E-1,3.354591E-1,0E0,0E0,8.124679E-2,5.261938E-1,2.621317E-2,0E0,1.0301924E-1,0E0,0E0,3.4619823E-2,1.2008068E-1,0E0,0E0,0E0,0E0,1.8140761E-2,0E0,2.4029434E-2,0E0,0E0,0E0,0E0,2.4005055E-2,0E0,0E0],"parents":[2147483647,0,0,1,1,2,2,3,3,4,4,5,5,8,8,9,9,10,10,12,12,15,15,16,16,21,21,23,23,28,28],"right_children":[2,4,6,8,10,12,-1,-1,14,16,18,-1,20,-1,-1,22,24,-1,-1,-1,-1,26,-1,28,-1,-1,-1,-1,30,-1,-1],"split_conditions":[3.164795E0,5.4003906E-1,6E0,7.0947266E-1,5.45E1,1.9555664E-1,-1.019071E-1,-2.439435E-1,-1.5251465E0,1.2292862E-3,1.19375E2,-8.319442E-3,1.1729686E3,-7.61385E-3,-1.623788E-1,5.5145264E-2,2.4719238E0,-2.0776871E-1,-7.4194044E-2,6.0339794E-2,2.8433076E-1,7.7197266E-1,1.0348988E-1,-1.314209E0,1.5501929E-2,-2.0334458E-2,4.4564676E-2,-2.8700596E-2,1.3022461E0,-1.6329852E-1,-3.3275697E-2],"split_indices":[16,25,1,33,9,25,0,0,8,30,9,0,15,0,0,11,16,0,0,0,0,25,0,27,0,0,0,0,27,0,0],"split_type":[0,0,0,0,0,0,0,0,0,0,0,0,0,0,0,0,0,0,0,0,0,0,0,0,0,0,0,0,0,0,0],"sum_hessian":[6.2288277E1,5.2535713E1,9.7525625E0,3.142529E1,2.1110426E1,8.544299E0,1.2082629E0,2.1375307E1,1.0049981E1,1.379036E1,7.320065E0,1.3096329E0,7.234667E0,1.0371543E0,9.012827E0,5.517922E0,8.272438E0,5.261961E0,2.0581043E0,1.2387903E0,5.9958763E0,2.6399806E0,2.8779414E0,6.9618006E0,1.3106378E0,1.0869768E0,1.5530038E0,1.02649E0,5.9353104E0,4.9197955E0,1.0155151E0],"tree_param":{"num_deleted":"0","num_feature":"54","num_nodes":"31","size_leaf_vector":"1"}},{"base_weights":[-2.7625242E-1,-4.013324E-1,2.9731855E-1,-4.6308714E-1,-2.22818E-1,-3.4412038E-2,3.1165957E-1,-4.7715324E-1,4.9084565E-3,-2.9379177E-1,1.3276553E-1,-1.44289E-1,1.3036995E-1,-4.896858E-1,-4.915825E-2,-3.2936162E-1,7.4466895E-3,1.4676017E-1,-5.4863516E-2,-1.0756142E-1,1.4085794E-2,-2.5175467E-1,-9.415986E-2,-3.487617E-1,-3.138067E-2,-1.8482822E-1,-6.471233E-2],"categories":[],"categories_nodes":[],"categories_segments":[],"categories_sizes":[],"default_left":[1,1,1,1,0,1,0,1,0,0,0,1,0,0,0,1,0,0,0,0,0,0,0,1,0,0,0],"id":4,"left_children":[1,3,5,7,9,11,-1,13,-1,15,17,19,-1,21,-1,23,-1,-1,-1,-1,-1,-1,-1,25,-1,-1,-1],"loss_changes":[4.576084E0,4.6373844E-1,1.2863233E0,2.5267267E-1,4.2122024E-1,2.5635886E-1,0E0,1.2383938E-1,0E0,1.4694417E-1,1.5728746E-1,7.396718E-2,0E0,5.020809E-2,0E0,3.8329244E-2,0E0,0E0,0E0,0E0,0E0,0E0,0E0,8.9132786E-4,0E0,0E0,0E0],"parents":[2147483647,0,0,1,1,2,2,3,3,4,4,5,5,7,7,9,9,10,10,11,11,13,13,15,15,23,23],"right_children":[2,4,6,8,10,12,-1,14,-1,16,18,20,-1,22,-1,24,-1,-1,-1,-1,-1,-1,-1,26,-1,-1,-1],"split_conditions":[7.35E1,6.084375E1,3.3276367E-1,1.05529785E-1,2.8637695E-1,1.8249512E-1,3.1165957E-1,4.6679688E-1,4.9084565E-3,4.3725586E-1,1.0454178E2,1.05285645E-1,1.3036995E-1,7E0,-4.915825E-2,8.856201E-2,7.4466895E-3,1.4676017E-1,-5.4863516E-2,-1.0756142E-1,1.4085794E-2,-2.5175467E-1,-9.415986E-2,5.878906E-1,-3.138067E-2,-1.8482822E-1,-6.471233E-2],"split_indices":[21,9,13,30,12,12,0,41,0,13,10,13,0,1,0,40,0,0,0,0,0,0,0,33,0,0,0],"split_type":[0,0,0,0,0,0,0,0,0,0,0,0,0,0,0,0,0,0,0,0,0,0,0,0,0,0,0],"sum_hessian":[6.1121853E1,5.0425694E1,1.0696159E1,3.628073E1,1.4144959E1,5.7448134E0,4.951346E0,3.522404E1,1.0566919E0,1.1936277E1,2.2086816E0,4.5588245E0,1.1859888E0,3.381285E1,1.4111902E0,1.064291E1,1.2933671E0,1.2016472E0,1.0070343E0,3.0561955E0,1.502629E0,3.1688553E1,2.1242974E0,9.633698E0,1.0092117E0,8.170058E0,1.4636403E0],"tree_param":{"num_deleted":"0","num_feature":"54","num_nodes":"27","size_leaf_vector":"1"}},{"base_weights":[4.099903E-1,6.134374E-1,2.5812712E-1,6.2522036E-1,6.4954005E-2,2.6948726E-2,4.0326008E-1,8.8468105E-2,3.17269E-1,1.2626976E-1,-2.503762E-1,4.426999E-1,4.0318843E-2,2.5503343E-1,-2.1547449E-1,-6.4605684E-3,-1.8571508E-1,5.087387E-1,1.7627211E-1,8.552829E-2,-8.37874E-2,2.909722E-1,6.342174E-3,-1.3293317E-1,-1.0303206E-2,5.187401E-2,5.261428E-1,2.4364349E-1,-4.4279337E-2,3.602611E-2,1.5720917E-1,5.456016E-1,7.4175194E-2,1.9783408E-3,1.4844193E-1,2.8239575E-1,8.075523E-2],"categories":[],"categories_nodes":[],"categories_segments":[],"categories_sizes":[],"default_left":[0,0,1,0,0,1,0,0,0,0,1,0,1,0,0,0,0,0,0,0,0,0,0,0,0,0,0,0,0,0,0,1,0,0,0,0,0],"id":5,"left_children":[1,3,5,7,-1,9,11,-1,-1,13,15,17,19,21,23,-1,-1,25,27,-1,-1,29,-1,-1,-1,-1,31,33,-1,-1,-1,35,-1,-1,-1,-1,-1],"loss_changes":[2.2398148E0,1.0365391E-1,1.5382421E0,1.8945694E-2,0E0,5.5160767E-1,3.8713932E-1,0E0,0E0,6.958753E-1,1.4793596E-1,3.5756207E-1,1.3393985E-1,9.243828E-2,3.89857E-2,0E0,0E0,8.5255146E-2,1.3896427E-1,0E0,0E0,2.6446342E-2,0E0,0E0,0E0,0E0,5.7096004E-2,6.9158435E-2,0E0,0E0,0E0,3.7646294E-2,0E0,0E0,0E0,0E0,0E0],"parents":[2147483647,0,0,1,1,2,2,3,3,5,5,6,6,9,9,10,10,11,11,12,12,13,13,14,14,17,17,18,18,21,21,26,26,27,27,31,31],"right_children":[2,4,6,8,-1,10,12,-1,-1,14,16,18,20,22,24,-1,-1,26,28,-1,-1,30,-1,-1,-1,-1,32,34,-1,-1,-1,36,-1,-1,-1,-1,-1],"split_conditions":[2.7124023E-1,1.5758346E3,6.308594E-1,6.5283203E-1,6.4954005E-2,7.13125E1,7.13125E1,8.8468105E-2,3.17269E-1,1.1729686E3,3.852539E-1,6.176758E-1,4.658203E-1,3.786621E-1,5E0,-6.4605684E-3,-1.8571508E-1,1.10321976E2,3.059082E0,8.552829E-2,-8.37874E-2,1.996875E1,6.342174E-3,-1.3293317E-1,-1.0303206E-2,5.187401E-2,4.29E2,1.4867267E2,-4.4279337E-2,3.602611E-2,1.5720917E-1,4.3676758E-1,7.4175194E-2,1.9783408E-3,1.4844193E-1,2.8239575E-1,8.075523E-2],"split_indices":[25,15,31,39,0,21,21,0,0,15,13,33,13,11,1,0,0,15,16,0,0,53,0,0,0,0,50,15,0,0,0,41,0,0,0,0,0],"split_type":[0,0,0,0,0,0,0,0,0,0,0,0,0,0,0,0,0,0,0,0,0,0,0,0,0,0,0,0,0,0,0,0,0,0,0,0,0],"sum_hessian":[7.662009E1,3.1449125E1,4.5170963E1,3.041492E1,1.0342036E0,1.7878485E1,2.7292479E1,1.0263278E0,2.9388594E1,1.3565005E1,4.313479E0,2.4419159E1,2.8733199E0,1.0036969E1,3.5280366E0,1.8301874E0,2.4832914E0,1.8839884E1,5.5792747E0,1.8727797E0,1.0005401E0,8.566048E0,1.4709212E0,2.5136735E0,1.0143629E0,1.063088E0,1.7776796E1,4.511563E0,1.0677115E0,1.2226912E0,7.3433566E0,1.6483595E1,1.2932003E0,1.01525E0,3.496313E0,1.5251157E1,1.2324386E0],"tree_param":{"num_deleted":"0","num_feature":"54","num_nodes":"37","size_leaf_vector":"1"}},{"base_weights":[-1.6445294E-1,-2.6030084E-1,2.4829698E-1,-3.338783E-1,-1.062401E-1,3.199669E-1,-8.994853E-2,2.5417244E-2,-3.4883913E-1,1.0118036E-2,-3.386325E-1,1.2039172E-2,3.8473168E-1,-1.09623305E-1,-3.7417674E-1,-1.215048E-1,8.530886E-2,-4.1826054E-2,-1.8949325E-1,2.3974745E-2,2.1338618E-1,-9.665555E-2,3.730191E-2,-1.9336136E-1,-6.744009E-2,1.0706359E-1,1.984195E-2,-7.484977E-2,1.1410134E-1,-6.576886E-2,2.9234666E-2,1.03425995E-1,-8.04722E-3],"categories":[],"categories_nodes":[],"categories_segments":[],"categories_sizes":[],"default_left":[0,0,0,0,1,0,0,0,0,0,0,0,0,0,0,0,1,0,0,0,0,0,0,0,0,0,1,1,0,0,0,0,0],"id":6,"left_children":[1,3,5,7,9,11,-1,-1,13,15,17,-1,19,21,23,-1,25,-1,-1,-1,-1,-1,-1,-1,-1,-1,27,29,31,-1,-1,-1,-1],"loss_changes":[2.260247E0,4.8060942E-1,3.9424336E-1,1.9239259E-1,4.4101036E-1,1.777265E-1,0E0,0E0,1.3679862E-1,2.444479E-1,2.4149835E-2,0E0,9.193814E-2,7.954763E-2,2.6235104E-2,0E0,7.841887E-2,0E0,0E0,0E0,0E0,0E0,0E0,0E0,0E0,0E0,7.638857E-2,4.091359E-2,5.4114856E-2,0E0,0E0,0E0,0E0],"parents":[2147483647,0,0,1,1,2,2,3,3,4,4,5,5,8,8,9,9,10,10,12,12,13,13,14,14,16,16,26,26,27,27,28,28],"right_children":[2,4,6,8,10,12,-1,-1,14,16,18,-1,20,22,24,-1,26,-1,-1,-1,-1,-1,-1,-1,-1,-1,28,30,32,-1,-1,-1,-1],"split_conditions":[3.0944824E0,1.9892578E0,6E0,1.332283E-3,6.296875E1,2.3474121E-1,-8.994853E-2,2.5417244E-2,-1.8112793E0,1.517334E-1,7.28125E1,1.2039172E-2,1.9921875E-1,6.557617E-1,4.0525E2,-1.215048E-1,-1.161377E0,-4.1826054E-2,-1.8949325E-1,2.3974745E-2,2.1338618E-1,-9.665555E-2,3.730191E-2,-1.9336136E-1,-6.744009E-2,1.0706359E-1,6.850586E-1,8.305664E-1,2.1633911E-1,-6.576886E-2,2.9234666E-2,1.03425995E-1,-8.04722E-3],"split_indices":[16,27,1,38,9,33,0,0,27,25,21,0,25,25,50,0,8,0,0,0,0,0,0,0,0,0,51,25,3,0,0,0,0],"split_type":[0,0,0,0,0,0,0,0,0,0,0,0,0,0,0,0,0,0,0,0,0,0,0,0,0,0,0,0,0,0,0,0,0],"sum_hessian":[5.4499172E1,4.4528263E1,9.970909E0,2.934587E1,1.5182396E1,8.757805E0,1.2131044E0,1.0087361E0,2.8337133E1,1.0754242E1,4.4281535E0,1.8190333E0,6.9387717E0,3.224136E0,2.5112997E1,1.9517684E0,8.802474E0,1.0249397E0,3.403214E0,1.0075972E0,5.9311748E0,2.183116E0,1.0410202E0,2.3276562E1,1.8364356E0,2.2009418E0,6.601532E0,3.3959365E0,3.2055955E0,2.392146E0,1.0037905E0,1.5281644E0,1.677431E0],"tree_param":{"num_deleted":"0","num_feature":"54","num_nodes":"33","size_leaf_vector":"1"}},{"base_weights":[-2.0205577E-1,-3.143974E-1,2.2357316E-1,-3.7933618E-1,-1.5421644E-1,-1.1139923E-1,3.699005E-1,-3.9561597E-1,2.0406658E-2,-2.5322357E-1,4.0625673E-2,-8.575238E-2,2.0434218E-2,-2.1506608E-2,4.3597484E-1,-4.326883E-1,-1.8426318E-1,-2.8117213E-1,-2.9190501E-2,1.9931066E-1,-8.281115E-2,2.6009086E-1,-1.4416424E-2,-2.210931E-1,-5.511227E-2,-1.1348551E-1,-1.7226068E-4,-1.5321165E-1,-3.0664736E-2,-8.0210995E-3,1.447996E-1],"categories":[],"categories_nodes":[],"categories_segments":[],"categories_sizes":[],"default_left":[1,1,1,1,0,1,0,0,0,0,0,0,0,0,0,1,0,0,0,0,0,0,0,0,0,0,0,0,0,0,0],"id":7,"left_children":[1,3,5,7,9,11,13,15,-1,17,19,-1,-1,-1,21,23,25,27,-1,29,-1,-1,-1,-1,-1,-1,-1,-1,-1,-1,-1],"loss_changes":[2.6140764E0,3.8364363E-1,6.143863E-1,2.1833086E-1,2.7932417E-1,4.6580773E-2,2.4711287E-1,1.439724E-1,0E0,3.4695268E-2,2.1500453E-1,0E0,0E0,0E0,3.009255E-1,2.3381233E-2,4.706824E-2,2.531898E-2,0E0,7.4577436E-2,0E0,0E0,0E0,0E0,0E0,0E0,0E0,0E0,0E0,0E0,0E0],"parents":[2147483647,0,0,1,1,2,2,3,3,4,4,5,5,6,6,7,7,9,9,10,10,14,14,15,15,16,16,17,17,19,19],"right_children":[2,4,6,8,10,12,14,16,-1,18,20,-1,-1,-1,22,24,26,28,-1,30,-1,-1,-1,-1,-1,-1,-1,-1,-1,-1,-1],"split_conditions":[7.20625E1,5.546875E1,5.3771973E-2,7.006836E-1,1.0083008E-1,7.879639E-2,7.34375E1,6E0,2.0406658E-2,7E0,1.156875E2,-8.575238E-2,2.0434218E-2,-2.1506608E-2,1.00073364E2,3.7890625E-1,4.915E2,2.1936035E-1,-2.9190501E-2,7.7366455E1,-8.281115E-2,2.6009086E-1,-1.4416424E-2,-2.210931E-1,-5.511227E-2,-1.1348551E-1,-1.7226068E-4,-1.5321165E-1,-3.0664736E-2,-8.0210995E-3,1.447996E-1],"split_indices":[21,9,12,32,12,13,9,1,0,1,9,0,0,0,10,41,18,13,0,10,0,0,0,0,0,0,0,0,0,0,0],"split_type":[0,0,0,0,0,0,0,0,0,0,0,0,0,0,0,0,0,0,0,0,0,0,0,0,0,0,0,0,0,0,0],"sum_hessian":[5.219963E1,4.150581E1,1.0693819E1,2.8559402E1,1.2946409E1,3.323763E0,7.370056E0,2.7550287E1,1.0091147E0,8.385674E0,4.5607343E0,2.292495E0,1.0312678E0,1.0648125E0,6.3052435E0,2.2548018E1,5.0022697E0,6.946223E0,1.4394518E0,2.596585E0,1.9641491E0,5.2372956E0,1.0679481E0,2.1542236E1,1.0057824E0,3.86962E0,1.1326495E0,5.877322E0,1.0689005E0,1.0099688E0,1.5866164E0],"tree_param":{"num_deleted":"0","num_feature":"54","num_nodes":"31","size_leaf_vector":"1"}},{"base_weights":[2.697026E-1,4.377674E-1,1.7010677E-1,4.680894E-1,1.03559755E-1,1.1094832E-2,2.6608765E-1,2.3912464E-1,6.198684E-2,7.106783E-2,-2.0624703E-1,3.426088E-1,1.2327748E-1,1.4082046E-1,-8.9921266E-2,5.2751275E-3,-1.3947858E-1,3.797354E-1,8.7744385E-2,2.0081139E-1,2.3018913E-2,-1.0599064E-2,1.7063944E-1,5.268958E-2,3.9610288E-1,8.622747E-2,-3.5188112E-2,-1.5310319E-3,2.3793182E-1,7.175829E-2,-3.3564445E-2,1.8918389E-1,-4.1943396E-4,4.0875354E-1,5.8988135E-2,1.4186299E-1,1.1823214E-2,7.456767E-2,-1.2032948E-2,2.0378E-2,2.171559E-1,2.1145664E-1,6.0633153E-2,1.2757769E-1,3.715238E-2],"categories":[],"categories_nodes":[],"categories_segments":[],"categories_sizes":[],"default_left":[0,1,1,1,0,1,0,0,0,0,1,0,0,0,0,0,0,0,0,0,0,0,1,0,1,0,0,0,0,1,0,1,0,0,0,0,0,0,0,0,0,0,0,0,0],"id":8,"left_children":[1,3,5,7,-1,9,11,-1,-1,13,15,17,19,21,-1,-1,-1,23,25,27,29,-1,31,-1,33,-1,-1,-1,35,37,-1,39,-1,41,-1,-1,-1,-1,-1,-1,43,-1,-1,-1,-1],"loss_changes":[1.1591153E0,9.038973E-2,7.2825694E-1,2.0705223E-2,0E0,2.633217E-1,2.8377843E-1,0E0,0E0,3.0001765E-1,7.2017476E-2,1.451633E-1,8.842784E-2,6.565955E-2,0E0,0E0,0E0,3.0842543E-2,6.1681386E-2,5.0832927E-2,3.2715686E-2,0E0,3.499943E-2,0E0,4.17161E-3,0E0,0E0,0E0,4.8377186E-2,3.773102E-2,0E0,3.2217354E-2,0E0,5.0446987E-3,0E0,0E0,0E0,0E0,0E0,0E0,2.4965882E-2,0E0,0E0,0E0,0E0],"parents":[2147483647,0,0,1,1,2,2,3,3,5,5,6,6,9,9,10,10,11,11,12,12,13,13,17,17,18,18,19,19,20,20,22,22,24,24,28,28,29,29,31,31,33,33,40,40],"right_children":[2,4,6,8,-1,10,12,-1,-1,14,16,18,20,22,-1,-1,-1,24,26,28,30,-1,32,-1,34,-1,-1,-1,36,38,-1,40,-1,42,-1,-1,-1,-1,-1,-1,44,-1,-1,-1,-1],"split_conditions":[2.2351074E-1,6.225586E-1,5.546875E-1,7.055E2,1.03559755E-1,7.78125E1,4.1259766E-1,2.3912464E-1,6.198684E-2,1.4744075E3,1.03149414E-1,6.3125E1,4.38E2,1.996875E1,-8.9921266E-2,5.2751275E-3,-1.3947858E-1,1.2417427E2,1.8249512E-1,1.3380302E2,7.7697473E2,-1.0599064E-2,6.5375E1,5.268958E-2,4.3676758E-1,8.622747E-2,-3.5188112E-2,-1.5310319E-3,2.7507324E0,7.030005E1,-3.3564445E-2,-1.3537598E0,-4.1943396E-4,1.8308105E0,5.8988135E-2,1.4186299E-1,1.1823214E-2,7.456767E-2,-1.2032948E-2,2.0378E-2,8.413086E-1,2.1145664E-1,6.0633153E-2,1.2757769E-1,3.715238E-2],"split_indices":[25,33,31,6,0,21,33,0,0,15,12,21,18,53,0,0,0,15,12,15,15,0,53,0,41,0,0,0,16,10,0,8,0,27,0,0,0,0,0,0,25,0,0,0,0],"split_type":[0,0,0,0,0,0,0,0,0,0,0,0,0,0,0,0,0,0,0,0,0,0,0,0,0,0,0,0,0,0,0,0,0,0,0,0,0,0,0,0,0,0,0,0,0],"sum_hessian":[7.2697075E1,2.578697E1,4.6910103E1,2.1880947E1,3.9060233E0,1.8077171E1,2.8832932E1,2.0874834E1,1.0061134E0,1.46952095E1,3.3819616E0,1.7862642E1,1.0970289E1,1.1841935E1,2.853274E0,1.0640928E0,2.317869E0,1.5163757E1,2.6988852E0,5.620669E0,5.349621E0,1.8856333E0,9.956302E0,1.2724745E0,1.3891283E1,1.6983613E0,1.0005238E0,1.0070796E0,4.6135893E0,3.604696E0,1.7449249E0,8.891483E0,1.0648189E0,1.2837689E1,1.0535938E0,3.5342424E0,1.0793469E0,1.6865119E0,1.9181842E0,1.7995514E0,7.091932E0,1.1786115E1,1.0515745E0,4.980831E0,2.1111007E0],"tree_param":{"num_deleted":"0","num_feature":"54","num_nodes":"45","size_leaf_vector":"1"}},{"base_weights":[-1.1440015E-1,-2.021615E-1,1.6579573E-1,-2.8247577E-1,-8.432236E-2,2.9100782E-1,-6.560461E-2,-1.1516563E-1,-3.202845E-1,-6.3080405E-4,-2.7559698E-1,1.070404E-2,3.4277123E-1,-1.5664285E-1,4.822845E-2,-2.0632643E-1,2.6176965E-2,-3.399525E-1,-1.22496314E-1,-9.223607E-2,6.1113667E-2,-2.9594285E-2,-1.577797E-1,5.4743458E-2,1.934149E-1,-9.622184E-2,-2.3982957E-2,-3.1477332E-2,-1.1892467E-1,-3.169353E-2,5.2878186E-2,-5.014061E-2,-1.7481445E-1,-1.9072996E-2,-7.308901E-2,9.1910586E-2,-3.864152E-2,3.725275E-2,9.318152E-2,5.8426097E-2,-1.9492578E-2,3.2676037E-2,-3.8285505E-2],"categories":[],"categories_nodes":[],"categories_segments":[],"categories_sizes":[],"default_left":[0,0,0,0,1,0,0,0,0,0,1,0,0,0,0,0,0,0,1,0,0,0,0,0,0,0,0,0,0,0,0,0,0,0,0,0,0,0,0,0,0,0,0],"id":9,"left_children":[1,3,5,7,9,11,13,15,17,19,21,-1,23,25,-1,27,29,31,33,-1,35,-1,-1,-1,-1,-1,-1,-1,-1,-1,-1,-1,-1,-1,-1,37,-1,39,-1,-1,41,-1,-1],"loss_changes":[1.2484403E0,3.3651114E-1,3.764388E-1,1.03648186E-1,2.6967564E-1,1.0691297E-1,9.1039E-2,7.8283794E-2,2.666533E-2,1.557583E-1,2.567482E-2,0E0,2.755487E-2,5.0731823E-3,0E0,1.0760576E-3,2.8835852E-2,6.72698E-4,7.1920827E-4,0E0,5.0916556E-2,0E0,0E0,0E0,0E0,0E0,0E0,0E0,0E0,0E0,0E0,0E0,0E0,0E0,0E0,3.8824774E-2,0E0,3.3288155E-2,0E0,0E0,2.8564963E-2,0E0,0E0],"parents":[2147483647,0,0,1,1,2,2,3,3,4,4,5,5,6,6,7,7,8,8,9,9,10,10,12,12,13,13,15,15,16,16,17,17,18,18,20,20,35,35,37,37,40,40],"right_children":[2,4,6,8,10,12,14,16,18,20,22,-1,24,26,-1,28,30,32,34,-1,36,-1,-1,-1,-1,-1,-1,-1,-1,-1,-1,-1,-1,-1,-1,38,-1,40,-1,-1,42,-1,-1],"split_conditions":[2.7202148E0,1.4196777E0,5E0,-1.314209E0,6.365625E1,4.259375E1,4.0740967E0,4.7045898E-1,8.623047E-1,1.9555664E-1,6.95625E1,1.070404E-2,2.8344727E-1,5.5078125E-1,4.822845E-2,-9.7802734E-1,-2.2738647E-1,3.3226013E-3,3.6523438E0,-9.223607E-2,5E0,-2.9594285E-2,-1.577797E-1,5.4743458E-2,1.934149E-1,-9.622184E-2,-2.3982957E-2,-3.1477332E-2,-1.1892467E-1,-3.169353E-2,5.2878186E-2,-5.014061E-2,-1.7481445E-1,-1.9072996E-2,-7.308901E-2,1.4379883E0,-3.864152E-2,-8.359375E-1,9.318152E-2,5.8426097E-2,-2.6885986E-1,3.2676037E-2,-3.8285505E-2],"split_indices":[16,27,1,27,21,26,16,25,25,25,9,0,33,25,0,19,3,38,9,0,1,0,0,0,0,0,0,0,0,0,0,0,0,0,0,8,0,8,0,0,3,0,0],"split_type":[0,0,0,0,0,0,0,0,0,0,0,0,0,0,0,0,0,0,0,0,0,0,0,0,0,0,0,0,0,0,0,0,0,0,0,0,0,0,0,0,0,0,0],"sum_hessian":[4.8406445E1,3.7073112E1,1.1333329E1,2.1216024E1,1.5857091E1,7.186875E0,4.1464543E0,4.656449E0,1.6559574E1,1.1728585E1,4.128505E0,1.3853135E0,5.8015614E0,2.6764123E0,1.4700418E0,2.5512347E0,2.105214E0,1.4408071E1,2.1515043E0,2.4490325E0,9.279553E0,1.0302892E0,3.098216E0,1.4752641E0,4.3262973E0,1.4334214E0,1.242991E0,1.00003E0,1.5512046E0,1.0862027E0,1.0190115E0,1.0001135E0,1.3407957E1,1.0439404E0,1.1075639E0,7.865224E0,1.4143293E0,5.8654227E0,1.9998009E0,2.0002856E0,3.8651373E0,1.496179E0,2.3689582E0],"tree_param":{"num_deleted":"0","num_feature":"54","num_nodes":"43","size_leaf_vector":"1"}},{"base_weights":[-1.4987735E-1,-2.4733299E-1,1.6270423E-1,-3.2252482E-1,-1.0629609E-1,3.5233446E-3,1.8854792E-1,-3.3944118E-1,1.0702934E-2,1.2347659E-1,-1.6164263E-1,-6.810065E-2,1.09609E-1,-3.765296E-1,-1.4018923E-1,-2.510525E-2,1.2501918E-1,-1.970206E-1,3.503338E-2,-4.9782037E-3,-7.431807E-2,-3.878284E-1,-4.7640737E-2,-8.680985E-2,-1.7164415E-3,-2.4701878E-1,-6.2264655E-2,-7.502973E-2,4.3083906E-2,-1.9941844E-1,-5.487949E-2,-1.3371864E-1,-3.2452986E-2,-9.9167034E-2,1.3334852E-2,-5.453347E-2,-5.437791E-4,-5.8849774E-2,-1.4901209E-2],"categories":[],"categories_nodes":[],"categories_segments":[],"categories_sizes":[],"default_left":[1,1,1,1,0,0,0,0,0,1,0,0,0,1,0,0,0,0,0,0,0,1,0,0,0,1,0,0,0,0,0,0,0,0,0,0,0,0,0],"id":10,"left_children":[1,3,5,7,9,11,-1,13,-1,15,17,19,-1,21,23,-1,-1,25,-1,27,-1,29,-1,-1,-1,31,33,35,-1,-1,-1,-1,-1,37,-1,-1,-1,-1,-1],"loss_changes":[1.4511392E0,3.443532E-1,3.949274E-1,1.3989878E-1,1.9682151E-1,1.334692E-1,0E0,1.0822177E-1,0E0,8.436142E-2,1.0922924E-1,3.2421686E-2,0E0,1.9532204E-2,2.2318944E-2,0E0,0E0,5.4428846E-2,0E0,3.6420826E-2,0E0,7.537365E-3,0E0,0E0,0E0,9.490073E-3,1.623497E-2,7.903231E-3,0E0,0E0,0E0,0E0,0E0,5.2687153E-4,0E0,0E0,0E0,0E0,0E0],"parents":[2147483647,0,0,1,1,2,2,3,3,4,4,5,5,7,7,9,9,10,10,11,11,13,13,14,14,17,17,19,19,21,21,25,25,26,26,27,27,33,33],"right_children":[2,4,6,8,10,12,-1,14,-1,16,18,20,-1,22,24,-1,-1,26,-1,28,-1,30,-1,-1,-1,32,34,36,-1,-1,-1,-1,-1,38,-1,-1,-1,-1,-1],"split_conditions":[6.9875E1,7.262457E1,4.4482422E-1,5.6884766E-1,1.0625206E2,3.0249023E-1,1.8854792E-1,6E0,1.0702934E-2,3.3154297E-1,3E0,1.00073364E2,1.09609E-1,6.8603516E-2,4.65E2,-2.510525E-2,1.2501918E-1,6E0,3.503338E-2,1.4318848E-1,-7.431807E-2,3.1835938E-1,-4.7640737E-2,-8.680985E-2,-1.7164415E-3,4.3792725E-2,5.0675E2,8.09375E1,4.3083906E-2,-1.9941844E-1,-5.487949E-2,-1.3371864E-1,-3.2452986E-2,3.4729004E-2,1.3334852E-2,-5.453347E-2,-5.437791E-4,-5.8849774E-2,-1.4901209E-2],"split_indices":[21,10,13,32,15,12,0,1,0,33,0,10,0,40,18,0,0,1,0,13,0,24,0,0,0,40,6,21,0,0,0,0,0,12,0,0,0,0,0],"split_type":[0,0,0,0,0,0,0,0,0,0,0,0,0,0,0,0,0,0,0,0,0,0,0,0,0,0,0,0,0,0,0,0,0,0,0,0,0,0,0],"sum_hessian":[4.5315357E1,3.4704155E1,1.0611204E1,2.1796726E1,1.2907428E1,6.673051E0,3.9381535E0,2.0787346E1,1.0093809E0,2.2666001E0,1.0640827E1,5.523259E0,1.1497916E0,1.6775135E1,4.0122104E0,1.2097173E0,1.056883E0,9.361238E0,1.2795898E0,3.6916308E0,1.8316283E0,1.5762924E1,1.0122118E0,3.007471E0,1.0047395E0,6.2202654E0,3.1409724E0,2.1873393E0,1.5042915E0,1.4744883E1,1.0180413E0,5.1718693E0,1.048396E0,2.1385462E0,1.002426E0,1.1725559E0,1.0147834E0,1.1377448E0,1.0008014E0],"tree_param":{"num_deleted":"0","num_feature":"54","num_nodes":"39","size_leaf_vector":"1"}},{"base_weights":[1.8477099E-1,2.7797407E-1,6.999875E-2,3.6111867E-1,1.6001022E-1,1.8533964E-1,5.6474363E-3,3.7394175E-1,2.9517991E-2,1.8591744E-1,-4.304382E-2,2.365711E-1,3.3104446E-2,4.1138653E-2,-1.3426472E-1,1.9356243E-1,5.7692442E-2,2.2205305E-1,2.374968E-2,2.6767832E-1,8.919355E-3,5.4136176E-2,-4.2966302E-2,1.0188448E-1,-8.515359E-2,-7.234287E-4,-1.06809445E-1,2.4087438E-2,2.3995246E-1,3.6309708E-2,-2.7578609E-2,3.0880008E-2,1.4769852E-1,1.3436191E-1,1.4753742E-2,-9.0232395E-2,6.33019E-2,2.5709E-1,3.5333317E-2,1.5599743E-1,1.0419854E-2,-6.4779036E-2,5.80252E-2,6.434979E-2,-1.762269E-2,1.3457453E-1,3.8627487E-2,1.7034772E-1,2.0668294E-2,1.3559683E-2,-6.608329E-2,9.4223805E-2,2.185423E-2],"categories":[],"categories_nodes":[],"categories_segments":[],"categories_sizes":[],"default_left":[0,0,0,0,0,1,1,1,0,0,0,0,0,0,1,0,0,0,0,0,0,0,0,0,0,0,0,0,0,0,0,0,0,0,1,0,0,1,0,0,0,1,0,0,0,0,0,0,0,0,0,0,0],"id":11,"left_children":[1,3,5,7,9,11,13,15,-1,17,-1,19,21,23,25,-1,-1,27,29,31,-1,-1,-1,33,35,-1,-1,-1,37,-1,-1,-1,-1,39,41,-1,43,45,-1,47,-1,49,-1,-1,-1,-1,-1,51,-1,-1,-1,-1,-1],"loss_changes":[7.096429E-1,3.0783343E-1,2.3558855E-1,5.9540987E-2,1.2571314E-1,8.097017E-2,1.1226282E-1,2.358675E-2,0E0,8.781141E-2,0E0,5.2082866E-2,4.536009E-2,1.4608854E-1,4.8004203E-2,0E0,0E0,2.849716E-2,1.9485442E-2,2.3106456E-2,0E0,0E0,0E0,3.3530205E-2,1.01442814E-1,0E0,0E0,0E0,1.4957428E-2,0E0,0E0,0E0,0E0,1.8899783E-2,4.4020865E-2,0E0,2.533862E-2,8.70049E-4,0E0,5.1686317E-3,0E0,2.3276847E-2,0E0,0E0,0E0,0E0,0E0,6.1463416E-3,0E0,0E0,0E0,0E0,0E0],"parents":[2147483647,0,0,1,1,2,2,3,3,4,4,5,5,6,6,7,7,9,9,11,11,12,12,13,13,14,14,17,17,18,18,19,19,23,23,24,24,28,28,33,33,34,34,36,36,37,37,39,39,41,41,47,47],"right_children":[2,4,6,8,10,12,14,16,-1,18,-1,20,22,24,26,-1,-1,28,30,32,-1,-1,-1,34,36,-1,-1,-1,38,-1,-1,-1,-1,40,42,-1,44,46,-1,48,-1,50,-1,-1,-1,-1,-1,52,-1,-1,-1,-1,-1],"split_conditions":[4.7045898E-1,4.6313477E-1,2.861328E-1,4.1271973E0,1.6875E0,7.34375E1,6.425E1,4.506836E-1,2.9517991E-2,5.78E2,-4.304382E-2,4.195E2,1.5429688E-1,6.112736E2,2.208252E-1,1.9356243E-1,5.7692442E-2,-1.4423828E0,4.0973407E2,5.428314E-1,8.919355E-3,5.4136176E-2,-4.2966302E-2,7.780319E1,5E0,-7.234287E-4,-1.06809445E-1,2.4087438E-2,1.9958496E-1,3.6309708E-2,-2.7578609E-2,3.0880008E-2,1.4769852E-1,2.1350098E-1,1.0981415E2,-9.0232395E-2,4.515E2,5.629883E-1,3.5333317E-2,1.2504883E0,1.0419854E-2,1.1296875E1,5.80252E-2,6.434979E-2,-1.762269E-2,1.3457453E-1,3.8627487E-2,5.735E2,2.0668294E-2,1.3559683E-2,-6.608329E-2,9.4223805E-2,2.185423E-2],"split_indices":[25,33,33,16,19,9,21,41,0,18,0,50,12,15,12,0,0,19,15,16,0,0,0,10,1,0,0,0,24,0,0,0,0,11,10,0,18,13,0,51,0,9,0,0,0,0,0,6,0,0,0,0,0],"split_type":[0,0,0,0,0,0,0,0,0,0,0,0,0,0,0,0,0,0,0,0,0,0,0,0,0,0,0,0,0,0,0,0,0,0,0,0,0,0,0,0,0,0,0,0,0,0,0,0,0,0,0,0,0],"sum_hessian":[6.715858E1,3.6277084E1,3.0881495E1,2.0069918E1,1.6207165E1,1.0385961E1,2.0495533E1,1.9024471E1,1.0454473E0,1.4884754E1,1.3224102E0,7.356355E0,3.0296054E0,1.6911577E1,3.5839553E0,1.7628395E1,1.3960762E0,1.1870409E1,3.0143456E0,6.2445154E0,1.1118398E0,1.9124126E0,1.1171929E0,1.1549568E1,5.36201E0,1.7212578E0,1.8626975E0,1.4524521E0,1.0417956E1,1.9106792E0,1.1036665E0,1.1238322E0,5.120683E0,8.01861E0,3.5309584E0,3.1341875E0,2.2278225E0,8.989261E0,1.4286962E0,6.4207573E0,1.5978522E0,2.17991E0,1.3510484E0,1.1552263E0,1.0725962E0,7.958921E0,1.0303397E0,5.274914E0,1.1458439E0,1.1750375E0,1.0048724E0,4.1882434E0,1.08667E0],"tree_param":{"num_deleted":"0","num_feature":"54","num_nodes":"53","size_leaf_vector":"1"}},{"base_weights":[-7.973711E-2,-1.5201105E-1,1.3191447E-1,-1.3912499E-1,-8.835286E-2,1.9166751E-1,-8.615737E-2,-4.6237454E-2,-1.2914678E-1,-2.0411514E-2,2.3245151E-1,-1.935739E-3,-1.2550771E-1,-4.0640095E-3,2.6317877E-1,-8.9119E-2,7.6312706E-2,2.226328E-2,1.4429314E-1,4.396813E-2,-1.6296376E-1,1.1912085E-2,1.5916845E-1,-4.8159078E-2,6.301144E-2,-9.322958E-2,-2.029414E-2,7.776959E-2,-6.285253E-2,1.0780612E-1,1.2567767E-2,-2.927328E-2,7.677264E-2,3.0281007E-2,-6.795419E-2],"categories":[],"categories_nodes":[],"categories_segments":[],"categories_sizes":[],"default_left":[0,0,0,0,0,0,0,1,0,0,0,0,0,0,0,0,0,0,0,0,0,0,0,0,0,0,0,0,0,0,0,0,0,0,0],"id":12,"left_children":[1,3,5,-1,7,9,-1,11,-1,-1,13,15,-1,-1,17,19,21,-1,-1,23,25,27,29,-1,-1,-1,-1,31,33,-1,-1,-1,-1,-1,-1],"loss_changes":[7.1041083E-1,2.4950564E-1,2.5159788E-1,0E0,1.6082178E-1,1.0926819E-1,0E0,1.8606006E-1,0E0,0E0,6.942409E-2,1.2900414E-1,0E0,0E0,3.2155156E-2,9.496835E-2,5.135185E-2,0E0,0E0,5.7903547E-2,9.564012E-3,3.7856594E-2,2.6985146E-2,0E0,0E0,0E0,0E0,5.037851E-2,4.149017E-2,0E0,0E0,0E0,0E0,0E0,0E0],"parents":[2147483647,0,0,1,1,2,2,4,4,5,5,7,7,10,10,11,11,14,14,15,15,16,16,19,19,20,20,21,21,22,22,27,27,28,28],"right_children":[2,4,6,-1,8,10,-1,12,-1,-1,14,16,-1,-1,18,20,22,-1,-1,24,26,28,30,-1,-1,-1,-1,32,34,-1,-1,-1,-1,-1,-1],"split_conditions":[2.6929626E0,8.996582E-2,6E0,-1.3912499E-1,6E0,6.149292E-2,-8.615737E-2,7.5E1,-1.2914678E-1,-2.0411514E-2,8.8742865E2,1.4196777E0,-1.2550771E-1,-4.0640095E-3,1.9335938E-1,-8.280029E-1,1.0515137E0,2.226328E-2,1.4429314E-1,-5.755615E-1,7.906494E-1,-3.302002E-1,4.119873E-1,-4.8159078E-2,6.301144E-2,-9.322958E-2,-2.029414E-2,-4.776001E-1,-2.6885986E-1,1.0780612E-1,1.2567767E-2,-2.927328E-2,7.677264E-2,3.0281007E-2,-6.795419E-2],"split_indices":[16,13,1,0,1,13,0,21,0,0,15,27,0,0,33,27,8,0,0,3,27,8,3,0,0,0,0,3,3,0,0,0,0,0,0],"split_type":[0,0,0,0,0,0,0,0,0,0,0,0,0,0,0,0,0,0,0,0,0,0,0,0,0,0,0,0,0,0,0,0,0,0,0],"sum_hessian":[4.4130627E1,3.3107124E1,1.1023503E1,9.968282E0,2.3138842E1,9.523084E0,1.50042E0,1.956279E1,3.5760517E0,1.4211E0,8.101983E0,1.691323E1,2.6495593E0,1.0008994E0,7.101084E0,7.9341707E0,8.979059E0,1.0257946E0,6.0752892E0,2.9757307E0,4.95844E0,5.6957436E0,3.2833157E0,1.0340395E0,1.9416912E0,3.7204669E0,1.2379731E0,3.0068889E0,2.6888547E0,1.8820837E0,1.401232E0,1.1555287E0,1.8513602E0,1.0634193E0,1.6254354E0],"tree_param":{"num_deleted":"0","num_feature":"54","num_nodes":"35","size_leaf_vector":"1"}},{"base_weights":[-1.07591115E-1,-2.4209666E-1,7.0109025E-2,-2.6161298E-1,4.540541E-2,2.374902E-1,-1.4006421E-1,-3.0113763E-1,-8.652009E-2,3.305379E-2,3.842924E-1,-2.0150048E-1,1.0030523E-2,-3.137192E-1,-2.1452004E-2,-1.295697E-1,1.8948352E-2,-5.1084317E-2,1.1350597E-1,6.0105707E-2,2.0775291E-1,-1.1605367E-1,-1.3184921E-2,3.841757E-2,-2.377568E-2,-3.6278717E-2,-3.2792243E-1,-1.4053013E-2,-8.050823E-2,9.531556E-3,8.55705E-2,-1.7041497E-1,-3.5663586E-2],"categories":[],"categories_nodes":[],"categories_segments":[],"categories_sizes":[],"default_left":[1,1,0,0,0,0,0,0,0,0,0,0,0,0,0,0,0,0,0,0,0,0,0,0,0,0,1,0,0,0,0,0,0],"id":13,"left_children":[1,3,5,7,-1,9,11,13,15,17,19,21,23,25,-1,27,-1,-1,29,-1,-1,-1,-1,-1,-1,-1,31,-1,-1,-1,-1,-1,-1],"loss_changes":[1.005438E0,1.781497E-1,6.8732536E-1,1.3107407E-1,0E0,3.0904686E-1,8.3828256E-2,4.5413017E-2,3.482156E-2,7.224597E-2,7.110834E-4,2.7875662E-2,1.7229546E-2,3.4847856E-2,0E0,9.434596E-3,0E0,0E0,1.8341918E-2,0E0,0E0,0E0,0E0,0E0,0E0,0E0,2.829647E-2,0E0,0E0,0E0,0E0,0E0,0E0],"parents":[2147483647,0,0,1,1,2,2,3,3,5,5,6,6,7,7,8,8,9,9,10,10,11,11,12,12,13,13,15,15,18,18,26,26],"right_children":[2,4,6,8,-1,10,12,14,16,18,20,22,24,26,-1,28,-1,-1,30,-1,-1,-1,-1,-1,-1,-1,32,-1,-1,-1,-1,-1,-1],"split_conditions":[6.74375E1,9.698486E-2,1.01737976E2,6E0,4.540541E-2,2.7514648E-1,6E0,3.8964844E-1,3.0078125E-1,2.2201538E-2,4.2016602E-1,1.1772156E-2,1.5917969E0,1.4013672E0,-2.1452004E-2,1.107666E0,1.8948352E-2,-5.1084317E-2,7.875E1,6.0105707E-2,2.0775291E-1,-1.1605367E-1,-1.3184921E-2,3.841757E-2,-2.377568E-2,-3.6278717E-2,7.4157715E-2,-1.4053013E-2,-8.050823E-2,9.531556E-3,8.55705E-2,-1.7041497E-1,-3.5663586E-2],"split_indices":[9,30,10,1,0,13,1,24,4,12,13,11,5,5,0,16,0,0,21,0,0,0,0,0,0,0,40,0,0,0,0,0,0],"split_type":[0,0,0,0,0,0,0,0,0,0,0,0,0,0,0,0,0,0,0,0,0,0,0,0,0,0,0,0,0,0,0,0,0],"sum_hessian":[4.0355503E1,2.2763142E1,1.7592361E1,2.1704874E1,1.0582674E0,9.720788E0,7.8715734E0,1.7120338E1,4.5845356E0,4.574921E0,5.1458673E0,5.3423653E0,2.5292082E0,1.6120075E1,1.0002636E0,3.375246E0,1.2092893E0,1.6058724E0,2.9690487E0,1.0567249E0,4.0891423E0,4.2706614E0,1.0717043E0,1.0160532E0,1.5131549E0,1.2363389E0,1.4883736E1,1.2466546E0,2.1285915E0,1.6295557E0,1.3394929E0,1.3858341E1,1.025395E0],"tree_param":{"num_deleted":"0","num_feature":"54","num_nodes":"33","size_leaf_vector":"1"}},{"base_weights":[1.2673318E-1,2.661892E-1,7.448837E-2,3.142634E-1,1.1813145E-1,1.2707213E-2,1.7638741E-1,1.6286784E-1,4.683385E-2,1.4808638E-1,-1.8613908E-3,6.271525E-2,-7.0546694E-2,-1.0759287E-2,1.8945396E-1,2.1786679E-2,8.817535E-2,1.04798704E-1,-9.254065E-2,3.4103144E-2,-1.8430829E-1,2.0135373E-1,5.6491175E-4,1.2191935E-1,-9.413009E-3,-1.3915141E-1,1.6239163E-2,6.0680334E-2,-2.0165808E-2,-2.366777E-1,-5.904025E-3,2.1576077E-1,2.2765588E-2,1.3617563E-1,-2.2555285E-3,-1.8900255E-2,-8.287461E-2,-4.18598E-2,4.160393E-2,-3.5926554E-2,-1.3331431E-1,2.3332913E-1,2.1621559E-2,1.0114611E-2,1.5198526E-1,-7.6861074E-3,3.9095435E-2,3.1648375E-2,2.4506767E-1,1.8009845E-2,8.817904E-2,1.283484E-1,3.3150908E-2],"categories":[],"categories_nodes":[],"categories_segments":[],"categories_sizes":[],"default_left":[0,1,1,1,1,0,0,0,0,0,0,0,1,0,0,0,0,0,0,0,0,0,0,1,0,0,0,0,0,0,0,0,0,0,0,0,0,0,1,0,0,0,0,0,0,0,0,0,0,0,0,0,0],"id":14,"left_children":[1,3,5,7,9,11,13,-1,-1,15,-1,17,19,-1,21,-1,-1,23,25,27,29,31,-1,33,-1,35,-1,-1,37,39,-1,41,-1,43,-1,-1,-1,-1,45,-1,-1,47,-1,-1,49,-1,-1,-1,51,-1,-1,-1,-1],"loss_changes":[4.428532E-1,8.329654E-2,2.9733133E-1,2.861023E-4,2.153664E-2,1.3224825E-1,5.032283E-2,0E0,0E0,6.020218E-3,0E0,1.3847852E-1,1.490508E-1,0E0,3.7596285E-2,0E0,0E0,3.6108613E-2,3.2107458E-2,3.6020927E-2,5.0522E-2,2.5801659E-2,0E0,2.6147917E-2,0E0,3.5411343E-3,0E0,0E0,2.4009746E-2,2.9331744E-3,0E0,3.3126116E-2,0E0,2.032058E-2,0E0,0E0,0E0,0E0,8.122034E-3,0E0,0E0,9.863079E-3,0E0,0E0,2.4958074E-2,0E0,0E0,0E0,6.979525E-3,0E0,0E0,0E0,0E0],"parents":[2147483647,0,0,1,1,2,2,3,3,4,4,5,5,6,6,9,9,11,11,12,12,14,14,17,17,18,18,19,19,20,20,21,21,23,23,25,25,28,28,29,29,31,31,33,33,38,38,41,41,44,44,48,48],"right_children":[2,4,6,8,10,12,14,-1,-1,16,-1,18,20,-1,22,-1,-1,24,26,28,30,32,-1,34,-1,36,-1,-1,38,40,-1,42,-1,44,-1,-1,-1,-1,46,-1,-1,48,-1,-1,50,-1,-1,-1,52,-1,-1,-1,-1],"split_conditions":[1.5527344E-1,4.338379E-1,1.3515625E1,3.28125E-1,5.42E2,5.7625E1,7.4072266E-1,1.6286784E-1,4.683385E-2,1.36171875E1,-1.8613908E-3,8.8742865E2,1.1584473E-1,-1.0759287E-2,6.97E2,2.1786679E-2,8.817535E-2,6.505E2,5E0,7.879639E-2,9.841821E1,9.53125E-1,5.6491175E-4,6.333008E-1,-9.413009E-3,3.696289E-1,1.6239163E-2,6.0680334E-2,9.760211E1,7.875E1,-5.904025E-3,9.580078E-1,2.2765588E-2,1.4638672E0,-2.2555285E-3,-1.8900255E-2,-8.287461E-2,-4.18598E-2,4.5166016E-2,-3.5926554E-2,-1.3331431E-1,6.308594E-1,2.1621559E-2,1.0114611E-2,-1.177002E0,-7.6861074E-3,3.9095435E-2,3.1648375E-2,3.8125E2,1.8009845E-2,8.817904E-2,1.283484E-1,3.3150908E-2],"split_indices":[25,33,29,41,6,9,39,0,0,53,0,15,12,0,18,0,0,6,1,13,10,31,0,33,0,33,0,0,10,9,0,23,0,5,0,0,0,0,32,0,0,31,0,0,51,0,0,0,50,0,0,0,0],"split_type":[0,0,0,0,0,0,0,0,0,0,0,0,0,0,0,0,0,0,0,0,0,0,0,0,0,0,0,0,0,0,0,0,0,0,0,0,0,0,0,0,0,0,0,0,0,0,0,0,0,0,0,0,0],"sum_hessian":[6.250405E1,1.5918386E1,4.6585663E1,1.11691885E1,4.749198E0,2.970207E1,1.6883595E1,1.0163982E1,1.0052062E0,3.6392908E0,1.109907E0,1.871016E1,1.0991912E1,1.00562E0,1.58779745E1,1.3157345E0,2.3235562E0,1.4975824E1,3.734334E0,6.0899553E0,4.901956E0,1.4869234E1,1.0087397E0,1.3166243E1,1.8095822E0,2.6378307E0,1.0965034E0,1.8611627E0,4.2287927E0,3.4749515E0,1.4270047E0,1.3258704E1,1.6105303E0,1.1762792E1,1.4034511E0,1.0516622E0,1.5861684E0,1.909151E0,2.3196418E0,1.0570222E0,2.4179294E0,1.1713377E1,1.5453275E0,1.6849649E0,1.00778265E1,1.133816E0,1.1858258E0,1.1692373E0,1.054414E1,2.1805685E0,7.8972583E0,9.490803E0,1.0533371E0],"tree_param":{"num_deleted":"0","num_feature":"54","num_nodes":"53","size_leaf_vector":"1"}},{"base_weights":[-5.3051308E-2,-1.1410471E-1,9.640782E-2,-3.313113E-2,-2.069704E-1,1.5074597E-1,-8.230868E-2,6.53859E-2,-1.2407807E-1,-2.567092E-1,-8.277594E-2,1.8538482E-1,-4.094266E-2,-1.9165667E-2,1.0231486E-1,-1.6099554E-1,4.2663187E-2,-1.3655627E-1,-4.2500425E-2,-1.2134737E-1,1.5338032E-2,-5.467403E-3,2.2113596E-1,-2.9238826E-2,2.0051943E-2,1.20024234E-1,6.378934E-3,2.866923E-2,-2.0934218E-1,-8.723135E-3,-7.6080695E-2,1.3214472E-1,6.349068E-2,6.6608034E-2,1.6652493E-2,-1.7930405E-2,-2.3445472E-1,-1.3909024E-2,6.305748E-2,-1.275487E-1,-3.639903E-2],"categories":[],"categories_nodes":[],"categories_segments":[],"categories_sizes":[],"default_left":[0,0,0,1,0,1,0,0,1,0,0,0,0,0,1,0,0,0,0,0,0,0,0,0,0,0,0,0,0,0,0,0,0,0,0,0,0,0,0,0,0],"id":15,"left_children":[1,3,5,7,9,11,-1,13,15,17,19,21,-1,23,25,27,-1,-1,-1,29,-1,-1,31,-1,-1,33,-1,-1,35,-1,-1,-1,37,-1,-1,-1,39,-1,-1,-1,-1],"loss_changes":[3.9317954E-1,2.2018954E-1,2.0479082E-1,1.632989E-1,6.445134E-2,1.0401744E-1,0E0,2.9965673E-2,8.602852E-2,3.3465028E-3,2.7542133E-2,7.191789E-2,0E0,1.06603075E-2,8.619539E-3,9.9574775E-2,0E0,0E0,0E0,1.0996923E-2,0E0,0E0,4.0526897E-2,0E0,0E0,1.540184E-3,0E0,0E0,2.2119164E-2,0E0,0E0,0E0,2.1386322E-2,0E0,0E0,0E0,1.2529194E-3,0E0,0E0,0E0,0E0],"parents":[2147483647,0,0,1,1,2,2,3,3,4,4,5,5,7,7,8,8,9,9,10,10,11,11,13,13,14,14,15,15,19,19,22,22,25,25,28,28,32,32,36,36],"right_children":[2,4,6,8,10,12,-1,14,16,18,20,22,-1,24,26,28,-1,-1,-1,30,-1,-1,32,-1,-1,34,-1,-1,36,-1,-1,-1,38,-1,-1,-1,40,-1,-1,-1,-1],"split_conditions":[2.4454346E0,2.0523935E2,6E0,6.50918E1,6.557617E-1,-2.9580078E0,-8.230868E-2,1.5429688E-1,1.0871582E0,7.290039E-1,7.904053E-1,4.20625E1,-4.094266E-2,3.8049316E-1,5.391452E1,-1.2744141E0,4.2663187E-2,-1.3655627E-1,-4.2500425E-2,-8.5717773E-1,1.5338032E-2,-5.467403E-3,5E0,-2.9238826E-2,2.0051943E-2,9.472656E-1,6.378934E-3,2.866923E-2,9.046875E0,-8.723135E-3,-7.6080695E-2,1.3214472E-1,1.440876E3,6.6608034E-2,1.6652493E-2,-1.7930405E-2,1.46875E2,-1.3909024E-2,6.305748E-2,-1.275487E-1,-3.639903E-2],"split_indices":[16,15,1,10,25,36,0,12,27,33,51,26,0,8,10,8,0,0,0,51,0,0,1,0,0,23,0,0,9,0,0,0,15,0,0,0,9,0,0,0,0],"split_type":[0,0,0,0,0,0,0,0,0,0,0,0,0,0,0,0,0,0,0,0,0,0,0,0,0,0,0,0,0,0,0,0,0,0,0,0,0,0,0,0,0],"sum_hessian":[4.088268E1,2.9193722E1,1.1688958E1,1.6320202E1,1.2873521E1,1.0024602E1,1.6643568E0,7.968974E0,8.351227E0,8.430275E0,4.443246E0,8.9021635E0,1.1224385E0,2.568718E0,5.400256E0,7.296115E0,1.0551121E0,7.1560907E0,1.2741841E0,3.2639692E0,1.1792767E0,1.4783368E0,7.423826E0,1.552407E0,1.0163109E0,4.2246556E0,1.1756005E0,1.2889981E0,6.007117E0,1.1048224E0,2.1591468E0,5.297279E0,2.1265476E0,3.2014682E0,1.0231873E0,1.0666354E0,4.9404817E0,1.0912522E0,1.0352952E0,3.8684788E0,1.0720028E0],"tree_param":{"num_deleted":"0","num_feature":"54","num_nodes":"41","size_leaf_vector":"1"}},{"base_weights":[-7.652598E-2,-2.2163367E-1,4.3969125E-2,-2.9540327E-1,-9.612692E-2,1.3358365E-1,-1.0729597E-1,-3.1448695E-1,-3.1224914E-2,-1.4430794E-1,2.405024E-2,-8.2647696E-2,1.9695462E-1,-1.6775627E-1,2.4379766E-2,-1.6621599E-1,-4.3626867E-2,-5.1791565E-3,-1.707691E-1,-6.654571E-2,6.788148E-3,-4.4662766E-2,2.741667E-1,-9.558425E-2,-1.3071026E-2,4.0526513E-2,-1.574782E-2,-2.4929533E-2,-9.46849E-2,-4.7459975E-2,1.2528405E-2,3.102437E-1,3.773163E-3,6.634684E-2,1.7425154E-1],"categories":[],"categories_nodes":[],"categories_segments":[],"categories_sizes":[],"default_left":[1,0,0,1,1,0,0,1,0,0,0,1,0,0,0,0,0,0,0,0,0,0,0,0,0,0,0,0,0,0,0,0,0,0,0],"id":16,"left_children":[1,3,5,7,9,11,13,15,-1,17,-1,19,21,23,25,-1,-1,-1,27,-1,-1,29,31,-1,-1,-1,-1,-1,-1,-1,-1,33,-1,-1,-1],"loss_changes":[6.6480494E-1,1.3049948E-1,3.0310178E-1,2.6267707E-2,6.1390564E-2,2.0568925E-1,7.159877E-2,8.903503E-3,0E0,1.9935384E-2,0E0,2.0432802E-2,2.1718863E-1,1.4690936E-2,1.3767429E-2,0E0,0E0,0E0,1.912877E-3,0E0,0E0,1.4713277E-2,7.9084456E-2,0E0,0E0,0E0,0E0,0E0,0E0,0E0,0E0,4.236579E-3,0E0,0E0,0E0],"parents":[2147483647,0,0,1,1,2,2,3,3,4,4,5,5,6,6,7,7,9,9,11,11,12,12,13,13,14,14,18,18,21,21,22,22,31,31],"right_children":[2,4,6,8,10,12,14,16,-1,18,-1,20,22,24,26,-1,-1,-1,28,-1,-1,30,32,-1,-1,-1,-1,-1,-1,-1,-1,34,-1,-1,-1],"split_conditions":[6.767749E1,5E0,1.0555957E2,1.8164062E-1,4.83E2,3.628125E1,6E0,5.0375E1,-3.1224914E-2,7.463379E-1,2.405024E-2,7.141113E-2,3.567505E-2,1.3458252E-2,1.5917969E0,-1.6621599E-1,-4.3626867E-2,-5.1791565E-3,1.5283203E0,-6.654571E-2,6.788148E-3,1.2481689E-2,2.2962646E0,-9.558425E-2,-1.3071026E-2,4.0526513E-2,-1.574782E-2,-2.4929533E-2,-9.46849E-2,-4.7459975E-2,1.2528405E-2,2.2387695E-1,3.773163E-3,6.634684E-2,1.7425154E-1],"split_indices":[10,1,10,32,6,9,1,9,0,16,0,32,12,11,5,0,0,0,5,0,0,12,16,0,0,0,0,0,0,0,0,13,0,0,0],"split_type":[0,0,0,0,0,0,0,0,0,0,0,0,0,0,0,0,0,0,0,0,0,0,0,0,0,0,0,0,0,0,0,0,0,0,0],"sum_hessian":[3.646461E1,1.6161985E1,2.0302626E1,9.326454E0,6.835531E0,1.2822837E1,7.479789E0,8.296778E0,1.0296762E0,5.1234264E0,1.7121048E0,2.8373117E0,9.985525E0,4.938304E0,2.5414848E0,7.260452E0,1.0363263E0,1.0746862E0,4.04874E0,1.6101022E0,1.2272096E0,2.520321E0,7.465204E0,3.937428E0,1.000876E0,1.0380298E0,1.503455E0,1.0305243E0,3.018216E0,1.2545373E0,1.2657835E0,6.4313483E0,1.0338556E0,1.9323179E0,4.4990306E0],"tree_param":{"num_deleted":"0","num_feature":"54","num_nodes":"35","size_leaf_vector":"1"}},{"base_weights":[8.546643E-2,1.9092427E-1,3.901369E-2,2.3302096E-1,7.737701E-2,1.806752E-1,1.0485233E-2,2.478016E-1,2.0905405E-2,-3.8682E-2,1.4135815E-1,1.9989423E-1,1.6142147E-2,1.2695074E-1,-8.128616E-3,1.2880431E-1,3.6287785E-2,-3.7789468E-2,8.371007E-3,1.3081892E-2,8.422534E-2,1.0946327E-1,2.7087137E-2,-6.406223E-3,1.6707538E-1,5.3473845E-2,-3.2930415E-2,2.322699E-2,9.601564E-2,9.004041E-2,-4.7797926E-2,1.3972841E-2,-1.06025115E-1,1.111676E-1,2.9540728E-3,-1.10223795E-4,-3.5091866E-2,-4.6409518E-2,6.4280294E-2,-1.5634413E-1,3.7989784E-2,1.4455355E-2,6.940841E-2,3.628919E-2,-8.675087E-2,-2.5549212E-2,9.153561E-2,-5.0269745E-2,-9.690419E-2,3.210102E-2,-5.06288E-3,-5.4119295E-3,3.4701664E-2,5.7302746E-3,-6.0203515E-2,5.5543616E-2,4.0527724E-4,-2.1049876E-3,-3.7964784E-2],"categories":[],"categories_nodes":[],"categories_segments":[],"categories_sizes":[],"default_left":[0,0,1,1,0,1,0,0,0,0,0,1,0,0,0,0,0,0,0,0,0,0,0,0,0,0,1,0,0,0,0,0,0,0,0,0,0,0,0,0,0,0,0,0,1,0,1,0,0,0,0,0,0,0,0,0,0,0,0],"id":17,"left_children":[1,3,5,7,9,11,13,15,-1,17,19,21,-1,23,25,-1,-1,-1,-1,-1,-1,-1,-1,-1,27,29,31,-1,-1,33,35,37,39,41,-1,-1,-1,43,45,47,49,-1,-1,51,53,-1,55,57,-1,-1,-1,-1,-1,-1,-1,-1,-1,-1,-1],"loss_changes":[2.8424194E-1,6.7774296E-2,1.7023751E-1,2.5245428E-2,5.2637458E-2,1.3732582E-2,8.019025E-2,1.0517836E-3,0E0,7.487325E-3,9.042926E-3,4.984826E-3,0E0,3.0695327E-2,5.129766E-2,0E0,0E0,0E0,0E0,0E0,0E0,0E0,0E0,0E0,3.202416E-3,4.0179186E-2,8.2853E-2,0E0,0E0,1.2611236E-2,3.417499E-3,4.9584724E-2,7.401161E-2,9.428389E-3,0E0,0E0,0E0,2.8346684E-2,3.2312848E-2,1.869826E-2,4.732391E-3,0E0,0E0,5.714724E-3,1.9135337E-2,0E0,1.3155088E-2,3.4838421E-3,0E0,0E0,0E0,0E0,0E0,0E0,0E0,0E0,0E0,0E0,0E0],"parents":[2147483647,0,0,1,1,2,2,3,3,4,4,5,5,6,6,7,7,9,9,10,10,11,11,13,13,14,14,24,24,25,25,26,26,29,29,30,30,31,31,32,32,33,33,37,37,38,38,39,39,40,40,43,43,44,44,46,46,47,47],"right_children":[2,4,6,8,10,12,14,16,-1,18,20,22,-1,24,26,-1,-1,-1,-1,-1,-1,-1,-1,-1,28,30,32,-1,-1,34,36,38,40,42,-1,-1,-1,44,46,48,50,-1,-1,52,54,-1,56,58,-1,-1,-1,-1,-1,-1,-1,-1,-1,-1,-1],"split_conditions":[2.2424316E-1,6.4501953E-1,9.27124E-2,6.465E2,8.408203E-1,1.9787598E-1,3.3225E2,4.1625E2,2.0905405E-2,1.5578125E1,8.383789E-1,9.448242E-1,1.6142147E-2,5.6030273E-2,7.208252E-2,1.2880431E-1,3.6287785E-2,-3.7789468E-2,8.371007E-3,1.3081892E-2,8.422534E-2,1.0946327E-1,2.7087137E-2,-6.406223E-3,1.1478271E0,5.805E2,2.565625E1,2.322699E-2,9.601564E-2,9.5788574E-1,7.104492E-2,1.625E1,1.109895E2,1.5644531E0,2.9540728E-3,-1.10223795E-4,-3.5091866E-2,7.4125E1,2.4078125E1,2.6586914E-1,9.170532E-3,1.4455355E-2,6.940841E-2,9.0185547E-1,2.8125E-1,-2.5549212E-2,8.5839844E-1,2.1203613E-1,-9.690419E-2,3.210102E-2,-5.06288E-3,-5.4119295E-3,3.4701664E-2,5.7302746E-3,-6.0203515E-2,5.5543616E-2,4.0527724E-4,-2.1049876E-3,-3.7964784E-2],"split_indices":[33,25,25,6,16,32,6,50,0,29,31,31,0,14,12,0,0,0,0,0,0,0,0,0,16,18,9,0,0,51,13,29,10,5,0,0,0,50,21,13,11,0,0,31,12,0,13,12,0,0,0,0,0,0,0,0,0,0,0],"split_type":[0,0,0,0,0,0,0,0,0,0,0,0,0,0,0,0,0,0,0,0,0,0,0,0,0,0,0,0,0,0,0,0,0,0,0,0,0,0,0,0,0,0,0,0,0,0,0,0,0,0,0,0,0,0,0,0,0,0,0],"sum_hessian":[5.854323E1,1.6950905E1,4.1592323E1,1.1598619E1,5.3522844E0,6.0780206E0,3.5514305E1,1.0491646E1,1.106974E0,2.042569E0,3.3097155E0,5.073802E0,1.0042185E0,4.0918245E0,3.1422478E1,9.490341E0,1.001304E0,1.0079235E0,1.0346456E0,1.0044838E0,2.3052318E0,4.0433292E0,1.0304728E0,1.0645256E0,3.027299E0,8.687789E0,2.273469E1,1.00949E0,2.017809E0,6.4645233E0,2.2232654E0,1.4341137E1,8.393553E0,4.910149E0,1.5543741E0,1.0344831E0,1.1887823E0,6.5531235E0,7.788014E0,6.1567607E0,2.236792E0,1.7498729E0,3.1602762E0,2.1815176E0,4.371606E0,1.3210148E0,6.466999E0,2.2181652E0,3.9385955E0,1.2315444E0,1.0052477E0,1.1782709E0,1.0032467E0,1.284069E0,3.087537E0,5.135779E0,1.3312199E0,1.2100952E0,1.00807E0],"tree_param":{"num_deleted":"0","num_feature":"54","num_nodes":"59","size_leaf_vector":"1"}},{"base_weights":[-3.6190264E-2,3.826574E-3,-2.2453445E-1,-5.2907825E-2,1.1955145E-1,-1.2107587E-1,-3.171915E-2,7.047852E-2,-8.6752765E-2,3.1139337E-2,2.055082E-1,-3.994924E-2,1.391748E-1,-1.2517664E-1,5.4320507E-2,-3.4646016E-2,8.314702E-2,1.1571389E-1,3.548268E-2,9.5509194E-2,-4.236227E-3,2.4481015E-2,-1.602318E-1,1.0159309E-1,-8.123655E-2,-6.048153E-2,3.650399E-2,-2.1099765E-2,4.036463E-2,-1.728241E-1,-6.1305156E-3,3.0420322E-3,-6.3039914E-2,4.0616527E-2,-1.8293992E-2,-1.8769081E-1,-1.8732222E-2,-2.8550435E-2,-1.02578565E-1],"categories":[],"categories_nodes":[],"categories_segments":[],"categories_sizes":[],"default_left":[0,0,0,1,0,0,0,0,0,0,0,0,1,0,0,0,0,0,0,0,0,1,1,0,0,0,0,0,0,0,0,0,0,0,0,0,0,0,0],"id":18,"left_children":[1,3,5,7,9,-1,-1,11,13,15,17,-1,19,21,23,25,-1,-1,-1,-1,-1,27,29,-1,31,-1,33,-1,-1,35,-1,-1,-1,-1,-1,37,-1,-1,-1],"loss_changes":[2.996303E-1,2.2743873E-1,4.400462E-3,1.0338109E-1,8.012852E-2,0E0,0E0,6.861296E-2,1.083076E-1,6.61445E-2,3.086269E-3,0E0,3.365252E-2,8.272369E-2,1.1147266E-1,3.755194E-2,0E0,0E0,0E0,0E0,0E0,1.7351938E-2,2.080378E-2,0E0,1.3209319E-2,0E0,1.515298E-2,0E0,0E0,1.562965E-2,0E0,0E0,0E0,0E0,0E0,1.0860354E-2,0E0,0E0,0E0],"parents":[2147483647,0,0,1,1,2,2,3,3,4,4,7,7,8,8,9,9,10,10,12,12,13,13,14,14,15,15,21,21,22,22,24,24,26,26,29,29,35,35],"right_children":[2,4,6,8,10,-1,-1,12,14,16,18,-1,20,22,24,26,-1,-1,-1,-1,-1,28,30,-1,32,-1,34,-1,-1,36,-1,-1,-1,-1,-1,38,-1,-1,-1],"split_conditions":[6E0,2.2493896E0,3.4525E2,-1.2548828E0,4.5043945E-1,-1.2107587E-1,-3.171915E-2,-7.503662E-1,1.2856445E0,1.9826595E3,1.38515625E1,-3.994924E-2,-1.9304199E0,3.1074219E0,1.2701416E-1,4.4555664E-1,8.314702E-2,1.1571389E-1,3.548268E-2,9.5509194E-2,-4.236227E-3,8.486328E-1,7.11E2,1.0159309E-1,8.779297E-1,-6.048153E-2,5.155E2,-2.1099765E-2,4.036463E-2,7.989502E-2,-6.1305156E-3,3.0420322E-3,-6.3039914E-2,4.0616527E-2,-1.8293992E-2,4.26622E1,-1.8732222E-2,-2.8550435E-2,-1.02578565E-1],"split_indices":[1,16,50,8,33,0,0,3,8,15,29,0,27,9,3,25,0,0,0,0,0,25,18,0,3,0,6,0,0,11,0,0,0,0,0,10,0,0,0],"split_type":[0,0,0,0,0,0,0,0,0,0,0,0,0,0,0,0,0,0,0,0,0,0,0,0,0,0,0,0,0,0,0,0,0,0,0,0,0,0,0],"sum_hessian":[3.8640907E1,3.2677677E1,5.96323E0,2.2291857E1,1.0385822E1,4.9218345E0,1.0413959E0,4.5654593E0,1.7726397E1,5.7913303E0,4.594492E0,1.3804874E0,3.184972E0,1.4020377E1,3.70602E0,4.395511E0,1.3958192E0,3.2485557E0,1.3459364E0,2.139854E0,1.045118E0,2.718062E0,1.1302315E1,1.5285279E0,2.1774924E0,1.6697308E0,2.7257802E0,1.3579807E0,1.3600812E0,1.0261132E1,1.0411824E0,1.0320904E0,1.145402E0,1.6218799E0,1.1039003E0,8.897321E0,1.3638115E0,1.5532651E0,7.3440557E0],"tree_param":{"num_deleted":"0","num_feature":"54","num_nodes":"39","size_leaf_vector":"1"}},{"base_weights":[-5.6932475E-2,-1.7547952E-1,4.5935903E-2,-2.4571997E-1,-6.576309E-2,1.2757997E-1,-6.851579E-2,-1.4292428E-1,-8.5864104E-2,2.709274E-2,-1.4659224E-1,3.586929E-2,2.5051194E-1,-1.2441104E-1,4.3350786E-2,-5.388092E-2,-8.678921E-3,-6.438191E-2,6.460585E-2,-8.4829494E-2,-1.892145E-2,8.338372E-2,-5.637351E-2,8.337278E-3,1.5410818E-1,-1.5001221E-1,1.190496E-3,4.6096172E-2,-5.0395867E-3,-4.274183E-2,-5.64959E-3,-1.633514E-2,1.1411689E-1,-9.226324E-2,-2.548597E-2,1.4304685E-3,6.948087E-2],"categories":[],"categories_nodes":[],"categories_segments":[],"categories_sizes":[],"default_left":[1,0,0,1,0,0,0,0,0,0,0,0,0,0,0,0,0,0,0,0,0,0,0,0,0,0,0,0,0,0,0,0,0,0,0,0,0],"id":19,"left_children":[1,3,5,7,9,11,13,-1,15,17,19,21,23,25,27,-1,-1,29,-1,-1,-1,31,-1,-1,-1,33,-1,-1,-1,-1,-1,-1,35,-1,-1,-1,-1],"loss_changes":[4.3260902E-1,1.1008811E-1,1.9032124E-1,3.71809E-2,6.2210802E-2,1.2282097E-1,6.0050014E-2,0E0,3.170155E-3,4.993578E-2,4.377261E-3,6.492445E-2,6.0008764E-2,2.0116232E-2,1.0464671E-2,0E0,0E0,2.414112E-3,0E0,0E0,0E0,2.7029146E-2,0E0,0E0,0E0,7.959895E-3,0E0,0E0,0E0,0E0,0E0,0E0,1.4494665E-2,0E0,0E0,0E0,0E0],"parents":[2147483647,0,0,1,1,2,2,3,3,4,4,5,5,6,6,8,8,9,9,10,10,11,11,12,12,13,13,14,14,17,17,21,21,25,25,32,32],"right_children":[2,4,6,8,10,12,14,-1,16,18,20,22,24,26,28,-1,-1,30,-1,-1,-1,32,-1,-1,-1,34,-1,-1,-1,-1,-1,-1,36,-1,-1,-1,-1],"split_conditions":[7.030005E1,5E0,1.01737976E2,5.35E1,1.5184326E0,4.4335938E-1,6E0,-1.4292428E-1,6.064453E1,4.2114258E-1,2.8515625E-1,2.1784668E0,7.4375E1,2.3986816E-1,1.5751953E0,-5.388092E-2,-8.678921E-3,2.5268555E-1,6.460585E-2,-8.4829494E-2,-1.892145E-2,1.663208E-2,-5.637351E-2,8.337278E-3,1.5410818E-1,5E0,1.190496E-3,4.6096172E-2,-5.0395867E-3,-4.274183E-2,-5.64959E-3,-1.633514E-2,6.184375E1,-9.226324E-2,-2.548597E-2,1.4304685E-3,6.948087E-2],"split_indices":[10,1,10,21,16,13,1,0,10,33,4,16,9,24,5,0,0,4,0,0,0,12,0,0,0,1,0,0,0,0,0,0,9,0,0,0,0],"split_type":[0,0,0,0,0,0,0,0,0,0,0,0,0,0,0,0,0,0,0,0,0,0,0,0,0,0,0,0,0,0,0,0,0,0,0,0,0],"sum_hessian":[3.3814037E1,1.5381875E1,1.8432163E1,8.622292E0,6.759583E0,1.0691022E1,7.741142E0,6.2621427E0,2.360149E0,3.4551506E0,3.3044326E0,6.862893E0,3.8281288E0,5.0871563E0,2.6539855E0,1.3542477E0,1.0059013E0,2.017491E0,1.4376594E0,2.2641032E0,1.0403295E0,5.532893E0,1.3299999E0,1.0128185E0,2.8153102E0,4.0801735E0,1.0069828E0,1.0075136E0,1.646472E0,1.006855E0,1.0106361E0,1.145238E0,4.3876553E0,2.3856568E0,1.6945169E0,1.0045235E0,3.3831317E0],"tree_param":{"num_deleted":"0","num_feature":"54","num_nodes":"37","size_leaf_vector":"1"}},{"base_weights":[6.020923E-2,1.9235708E-1,3.5757735E-2,1.1693908E-1,6.346856E-2,1.15058444E-1,5.7655773E-3,-1.1152892E-3,5.2062176E-2,3.0044539E-2,1.5612234E-1,4.432588E-2,-3.6988717E-2,8.1380054E-2,-2.152361E-2,1.4088157E-2,1.8049648E-1,7.101784E-2,-4.059409E-2,6.7080506E-3,-9.475353E-2,6.0307026E-2,5.7690847E-4,1.01377666E-1,2.0532034E-2,9.1222286E-2,-2.8607536E-2,-4.1470468E-2,2.15184E-3,5.0626636E-2,-7.829509E-2,-1.3008721E-1,8.986028E-3,1.0335255E-1,-1.0177729E-2,-3.5162445E-2,1.0862657E-2,-1.9473935E-2,1.8517965E-2,7.468159E-2,-2.368794E-2,-5.8840264E-2,-2.8721748E-2,-3.8443075E-3,-1.528063E-1,1.2134E-1,2.6114747E-2,1.0031959E-1,1.0701441E-2,-2.504603E-2,3.3780949E-3,-2.711356E-2,-9.469174E-2,1.712798E-2,7.1424134E-2,-4.7357287E-3,2.4038218E-2,7.352141E-3,6.0633015E-2,2.2198208E-2,-1.4003109E-2],"categories":[],"categories_nodes":[],"categories_segments":[],"categories_sizes":[],"default_left":[0,1,0,0,0,0,1,0,0,0,0,1,1,0,0,0,0,0,0,1,0,0,0,0,0,1,1,0,1,1,0,0,0,0,0,0,0,0,0,0,0,0,0,0,0,0,1,0,0,0,0,0,0,0,0,0,0,0,0,0,0],"id":20,"left_children":[1,3,5,-1,7,9,11,-1,-1,13,15,17,19,21,-1,-1,23,25,27,29,31,-1,-1,-1,-1,33,35,-1,37,39,41,43,-1,45,-1,-1,-1,-1,-1,47,-1,-1,49,-1,51,53,55,57,59,-1,-1,-1,-1,-1,-1,-1,-1,-1,-1,-1,-1],"loss_changes":[1.7648181E-1,3.1351507E-2,1.1615035E-1,0E0,9.516018E-3,4.2176902E-2,6.212605E-2,0E0,0E0,2.455656E-2,2.2402316E-2,4.7639966E-2,4.5927566E-2,1.1324288E-2,0E0,0E0,1.4078543E-2,3.358215E-2,9.878116E-3,4.5587823E-2,3.338118E-2,0E0,0E0,0E0,0E0,1.9741483E-2,8.573957E-3,0E0,6.6632046E-3,2.2300297E-2,4.802678E-3,1.5663669E-2,0E0,1.3389394E-2,0E0,0E0,0E0,0E0,0E0,1.0045119E-2,0E0,0E0,2.7481774E-3,0E0,7.954948E-3,1.26993805E-2,3.210666E-3,6.6810325E-3,5.23252E-3,0E0,0E0,0E0,0E0,0E0,0E0,0E0,0E0,0E0,0E0,0E0,0E0],"parents":[2147483647,0,0,1,1,2,2,4,4,5,5,6,6,9,9,10,10,11,11,12,12,13,13,16,16,17,17,18,18,19,19,20,20,25,25,26,26,28,28,29,29,30,30,31,31,33,33,39,39,42,42,44,44,45,45,46,46,47,47,48,48],"right_children":[2,4,6,-1,8,10,12,-1,-1,14,16,18,20,22,-1,-1,24,26,28,30,32,-1,-1,-1,-1,34,36,-1,38,40,42,44,-1,46,-1,-1,-1,-1,-1,48,-1,-1,50,-1,52,54,56,58,60,-1,-1,-1,-1,-1,-1,-1,-1,-1,-1,-1,-1],"split_conditions":[8.5754395E-2,4.338379E-1,2.1142578E-1,1.1693908E-1,1.2804565E0,7.351074E-1,4.8625E2,-1.1152892E-3,5.2062176E-2,5.722656E-1,-1.5964355E0,7.9248047E-1,3.890625E1,4.4625E1,-2.152361E-2,1.4088157E-2,1.9665527E-1,1.21032715E-1,1.26875E1,4.5043945E-1,1.019375E2,6.0307026E-2,5.7690847E-4,1.01377666E-1,2.0532034E-2,2.5390625E-1,7.1289062E0,-4.1470468E-2,5.5023193E-2,6.725E2,7.817383E-1,2.0904541E-2,8.986028E-3,1.7370605E-1,-1.0177729E-2,-3.5162445E-2,1.0862657E-2,-1.9473935E-2,1.8517965E-2,8.486328E-1,-2.368794E-2,-5.8840264E-2,9.094238E-2,-3.8443075E-3,7.398193E1,1.019905E2,2.328125E1,-9.187012E-1,7.342529E-2,-2.504603E-2,3.3780949E-3,-2.711356E-2,-9.469174E-2,1.712798E-2,7.1424134E-2,-4.7357287E-3,2.4038218E-2,7.352141E-3,6.0633015E-2,2.2198208E-2,-1.4003109E-2],"split_indices":[25,33,33,0,16,16,18,0,0,25,27,25,9,21,0,0,24,11,29,33,9,0,0,0,0,41,29,0,14,6,31,12,0,24,0,0,0,0,0,25,0,0,24,0,10,15,53,51,11,0,0,0,0,0,0,0,0,0,0,0,0],"split_type":[0,0,0,0,0,0,0,0,0,0,0,0,0,0,0,0,0,0,0,0,0,0,0,0,0,0,0,0,0,0,0,0,0,0,0,0,0,0,0,0,0,0,0,0,0,0,0,0,0,0,0,0,0,0,0,0,0,0,0,0,0],"sum_hessian":[5.574652E1,7.632089E0,4.8114433E1,5.1563935E0,2.4756958E0,1.2425234E1,3.56892E1,1.3076646E0,1.1680311E0,4.610938E0,7.814296E0,1.874565E1,1.694355E1,2.6419713E0,1.9689667E0,1.595437E0,6.2188587E0,1.4387192E1,4.358458E0,1.0149632E1,6.793917E0,1.4361901E0,1.2057812E0,4.9711256E0,1.247733E0,1.20315E1,2.3556921E0,1.7170827E0,2.6413753E0,6.9586964E0,3.1909363E0,5.0553184E0,1.7385987E0,1.0918233E1,1.113267E0,1.0709009E0,1.2847911E0,1.1591707E0,1.4822047E0,5.7783494E0,1.1803471E0,1.0125834E0,2.1783528E0,1.0009805E0,4.054338E0,8.392711E0,2.5255215E0,3.7197845E0,2.058565E0,1.1023972E0,1.0759557E0,1.7690662E0,2.2852716E0,2.1758168E0,6.216894E0,1.1808416E0,1.34468E0,1.0657388E0,2.6540458E0,1.0219722E0,1.0365927E0],"tree_param":{"num_deleted":"0","num_feature":"54","num_nodes":"61","size_leaf_vector":"1"}},{"base_weights":[-2.1581857E-2,1.0864034E-2,-1.842498E-1,-1.4869642E-1,3.7652053E-2,-1.0793584E-1,-3.8468167E-2,-2.0729993E-2,-8.61476E-2,5.9348833E-2,-1.4316534E-1,1.3458879E-2,1.6338746E-1,-9.5481955E-2,-8.945737E-3,3.9031807E-2,-6.9459856E-2,8.208E-3,1.8262084E-1,-4.29003E-2,5.4211486E-2,1.0231136E-1,1.5039743E-2,7.268433E-2,-4.0148273E-2,4.7752257E-2,-1.5676886E-2,-4.3937836E-2,1.6832972E-2],"categories":[],"categories_nodes":[],"categories_segments":[],"categories_sizes":[],"default_left":[0,0,0,0,1,0,0,0,0,0,1,1,0,0,0,1,0,0,0,0,1,0,0,0,0,0,0,0,0],"id":21,"left_children":[1,3,5,7,9,-1,-1,-1,-1,11,13,15,17,-1,-1,19,-1,-1,21,-1,23,-1,-1,25,27,-1,-1,-1,-1],"loss_changes":[2.0186348E-1,1.4457725E-1,4.9494505E-3,5.196452E-3,1.2085082E-1,0E0,0E0,0E0,0E0,1.2325786E-1,1.6710728E-2,8.0724224E-2,1.9483835E-2,0E0,0E0,3.748618E-2,0E0,0E0,1.7117128E-2,0E0,3.0915752E-2,0E0,0E0,3.5729893E-2,1.4492014E-2,0E0,0E0,0E0,0E0],"parents":[2147483647,0,0,1,1,2,2,3,3,4,4,9,9,10,10,11,11,12,12,15,15,18,18,20,20,23,23,24,24],"right_children":[2,4,6,8,10,-1,-1,-1,-1,12,14,16,18,-1,-1,20,-1,-1,22,-1,24,-1,-1,26,28,-1,-1,-1,-1],"split_conditions":[6E0,3.213501E-2,5.9765625E-1,-5.830078E-1,1.332283E-3,-1.0793584E-1,-3.8468167E-2,-2.0729993E-2,-8.61476E-2,8.389346E2,7.398193E1,7.5E1,4.434375E1,-9.5481955E-2,-8.945737E-3,1.1602783E-1,-6.9459856E-2,8.208E-3,2.06875E1,-4.29003E-2,9.321289E-1,1.0231136E-1,1.5039743E-2,3.7281906E2,9.3603516E-1,4.7752257E-2,-1.5676886E-2,-4.3937836E-2,1.6832972E-2],"split_indices":[1,13,25,8,38,0,0,0,0,15,10,21,26,0,0,25,0,0,29,0,31,0,0,15,16,0,0,0,0],"split_type":[0,0,0,0,0,0,0,0,0,0,0,0,0,0,0,0,0,0,0,0,0,0,0,0,0,0,0,0,0],"sum_hessian":[3.6867626E1,3.1514858E1,5.3527675E0,3.876137E0,2.7638721E1,3.353113E0,1.9996544E0,1.1963971E0,2.67974E0,2.5277391E1,2.3613293E0,1.832421E1,6.9531827E0,1.3296329E0,1.0316964E0,1.6327839E1,1.9963691E0,1.0191195E0,5.934063E0,1.2658225E0,1.5062017E1,4.887664E0,1.0463991E0,1.278818E1,2.2738369E0,1.0555019E1,2.2331612E0,1.2652459E0,1.0085908E0],"tree_param":{"num_deleted":"0","num_feature":"54","num_nodes":"29","size_leaf_vector":"1"}},{"base_weights":[-4.1898213E-2,5.5309352E-3,-2.3979293E-1,-8.7657735E-2,6.6535145E-2,-1.3402246E-1,-2.2336148E-2,-1.4820887E-1,3.341899E-2,1.2392801E-1,-5.007094E-2,-1.7877099E-1,8.987937E-3,-2.991946E-2,6.141925E-2,5.9022665E-2,2.1189311E-1,-9.192374E-2,3.7242323E-2,-2.0041364E-1,-1.8083362E-2,1.1515712E-2,-3.104821E-2,1.0660054E-2,8.321782E-2,1.3711217E-2,1.2766683E-1,7.1275174E-3,-1.2071909E-1,-1.1159097E-1,-2.6638089E-2,-2.0985622E-2,4.229913E-2,-1.9092249E-2,-6.809549E-2,-6.350145E-2,3.2301307E-2,-4.1338004E-2,-5.924883E-3,-6.757742E-3,3.1593524E-2],"categories":[],"categories_nodes":[],"categories_segments":[],"categories_sizes":[],"default_left":[0,1,0,1,0,0,0,0,0,0,1,0,0,0,0,0,0,0,0,1,0,0,0,0,0,0,0,0,0,0,0,0,0,0,0,0,0,0,0,0,0],"id":22,"left_children":[1,3,5,7,9,-1,-1,11,13,15,17,19,-1,21,-1,23,25,27,-1,29,-1,-1,-1,31,-1,-1,-1,-1,33,-1,-1,35,-1,-1,-1,37,39,-1,-1,-1,-1],"loss_changes":[3.100025E-1,1.6220282E-1,2.3199558E-2,8.789951E-2,1.2126228E-1,0E0,0E0,4.245417E-2,2.965948E-2,5.491735E-2,4.012175E-2,1.3174981E-2,0E0,7.375948E-3,0E0,4.0726356E-2,3.0083433E-2,1.7696887E-2,0E0,6.6194236E-3,0E0,0E0,0E0,1.7475136E-2,0E0,0E0,0E0,0E0,1.834631E-4,0E0,0E0,1.4511608E-2,0E0,0E0,0E0,2.3840368E-3,5.245929E-3,0E0,0E0,0E0,0E0],"parents":[2147483647,0,0,1,1,2,2,3,3,4,4,7,7,8,8,9,9,10,10,11,11,13,13,15,15,16,16,17,17,19,19,23,23,28,28,31,31,35,35,36,36],"right_children":[2,4,6,8,10,-1,-1,12,14,16,18,20,-1,22,-1,24,26,28,-1,30,-1,-1,-1,32,-1,-1,-1,-1,34,-1,-1,36,-1,-1,-1,38,40,-1,-1,-1,-1],"split_conditions":[2.496338E0,6.807489E1,7.20625E1,3.6206055E-1,1.095625E2,-1.3402246E-1,-2.2336148E-2,3.2006836E-1,5.195E2,4.2016602E-1,6.4375E1,6E0,8.987937E-3,1.0288696E0,6.141925E-2,2.116394E-2,6.6375E1,1.5136719E0,3.7242323E-2,4.078125E1,-1.8083362E-2,1.1515712E-2,-3.104821E-2,5.955E2,8.321782E-2,1.3711217E-2,1.2766683E-1,7.1275174E-3,1.2772412E2,-1.1159097E-1,-2.6638089E-2,2.6123047E-1,4.229913E-2,-1.9092249E-2,-6.809549E-2,1.05285645E-1,5E0,-4.1338004E-2,-5.924883E-3,-6.757742E-3,3.1593524E-2],"split_indices":[16,10,21,33,9,0,0,4,6,13,34,1,0,16,0,11,9,5,0,9,0,0,0,18,0,0,0,0,10,0,0,4,0,0,0,13,1,0,0,0,0],"split_type":[0,0,0,0,0,0,0,0,0,0,0,0,0,0,0,0,0,0,0,0,0,0,0,0,0,0,0,0,0,0,0,0,0,0,0,0,0,0,0,0,0],"sum_hessian":[3.1886957E1,2.6506285E1,5.3806725E0,1.0313974E1,1.619231E1,4.3736606E0,1.0070122E0,6.7261157E0,3.5878582E0,1.080926E1,5.38305E0,5.6173277E0,1.1087879E0,2.48972E0,1.098138E0,7.181411E0,3.6278496E0,4.225272E0,1.1577773E0,4.5251718E0,1.092156E0,1.0485073E0,1.4412129E0,5.7098145E0,1.4715962E0,1.0024023E0,2.6254473E0,1.0091451E0,3.2161272E0,3.4712055E0,1.0539663E0,4.499986E0,1.2098283E0,1.0551951E0,2.1609323E0,2.3963397E0,2.1036468E0,1.3095522E0,1.0867875E0,1.0735362E0,1.0301106E0],"tree_param":{"num_deleted":"0","num_feature":"54","num_nodes":"41","size_leaf_vector":"1"}},{"base_weights":[4.0219225E-2,1.475486E-1,2.102745E-2,1.7026077E-1,-3.1260173E-3,6.035076E-2,-1.6674567E-2,1.8952002E-1,1.7334372E-2,-1.5905702E-2,8.9334935E-2,-7.565066E-2,-4.527617E-3,1.0309967E-1,2.703174E-2,-6.744101E-2,7.510634E-2,1.13655195E-1,-1.3989282E-2,3.326414E-2,-4.138402E-2,-5.5488516E-2,-6.5291757E-3,9.445325E-3,4.6384964E-2,1.3171248E-1,8.1175305E-3,-2.7388973E-2,1.7558219E-2,6.619342E-2,-2.6324397E-2,-6.440911E-2,3.831709E-2,1.6880026E-2,-2.3347234E-2,1.4489587E-1,1.0854689E-2,2.514152E-2,-1.8072078E-2,7.8674756E-2,-5.7947054E-3,-5.633358E-2,2.272579E-2,-2.4756305E-2,-1.24269E-1,4.3206077E-2,-1.2210551E-2,1.6217431E-1,1.3747826E-2,-1.8943257E-3,9.5941275E-2,-4.316717E-2,1.5101582E-3,-8.1110165E-2,2.1775682E-2,-1.2210515E-2,-7.728474E-2,8.997489E-2,2.6915317E-2,5.5047177E-2,6.268327E-3,-3.094154E-3,-5.4188665E-2,2.8252373E-2,-1.4189222E-2],"categories":[],"categories_nodes":[],"categories_segments":[],"categories_sizes":[],"default_left":[1,1,1,1,0,0,0,0,0,0,1,0,0,0,0,1,0,0,0,1,0,0,0,0,0,0,0,0,0,0,0,0,1,0,0,0,0,0,0,0,0,0,0,0,0,0,0,1,0,0,0,0,0,0,0,0,0,0,0,0,0,0,0,0,0],"id":23,"left_children":[1,3,5,7,-1,9,11,13,-1,15,17,-1,19,-1,-1,21,23,25,27,29,31,-1,33,-1,-1,35,37,-1,-1,39,41,43,45,-1,-1,47,-1,-1,-1,49,-1,51,-1,53,55,-1,-1,57,-1,-1,59,-1,-1,61,63,-1,-1,-1,-1,-1,-1,-1,-1,-1,-1],"loss_changes":[1.0932321E-1,2.9404104E-2,7.1379244E-2,1.1982098E-2,0E0,5.325167E-2,4.022462E-2,2.4012327E-3,0E0,3.933891E-2,4.4668317E-2,0E0,3.477343E-2,0E0,0E0,1.3044843E-2,1.3405476E-3,2.5584996E-2,1.0249288E-2,2.6059512E-2,2.556181E-2,0E0,6.798104E-3,0E0,0E0,1.407899E-2,7.619995E-3,0E0,0E0,8.937061E-3,1.3602216E-2,2.0984124E-2,1.251323E-2,0E0,0E0,1.6697988E-2,0E0,0E0,0E0,1.0688897E-2,0E0,7.492868E-3,0E0,2.1030106E-2,7.6928325E-3,0E0,0E0,7.4296296E-3,0E0,0E0,5.742751E-3,0E0,0E0,6.549256E-3,9.98535E-3,0E0,0E0,0E0,0E0,0E0,0E0,0E0,0E0,0E0,0E0],"parents":[2147483647,0,0,1,1,2,2,3,3,5,5,6,6,7,7,9,9,10,10,12,12,15,15,16,16,17,17,18,18,19,19,20,20,22,22,25,25,26,26,29,29,30,30,31,31,32,32,35,35,39,39,41,41,43,43,44,44,47,47,50,50,53,53,54,54],"right_children":[2,4,6,8,-1,10,12,14,-1,16,18,-1,20,-1,-1,22,24,26,28,30,32,-1,34,-1,-1,36,38,-1,-1,40,42,44,46,-1,-1,48,-1,-1,-1,50,-1,52,-1,54,56,-1,-1,58,-1,-1,60,-1,-1,62,64,-1,-1,-1,-1,-1,-1,-1,-1,-1,-1],"split_conditions":[8.5754395E-2,2.3339844E-1,4.76E2,6.225586E-1,-3.1260173E-3,4.2016602E-1,7.5341797E-1,5.595E2,1.7334372E-2,4.23E2,6.171875E-1,-7.565066E-2,4.725E1,1.0309967E-1,2.703174E-2,8.6865234E-1,1.6132812E0,1.8164062E-1,1.4484375E1,3.28125E-1,1.009375E2,-5.5488516E-2,1.0723877E-1,9.445325E-3,4.6384964E-2,7.290039E-1,1.5464783E-2,-2.7388973E-2,1.7558219E-2,6.505E2,1.16067505E2,4.2016602E-1,1.03671875E1,1.6880026E-2,-2.3347234E-2,3.7275E2,1.0854689E-2,2.514152E-2,-1.8072078E-2,1.4921875E0,-5.7947054E-3,5.5E2,2.272579E-2,3.154297E-1,5.899521E1,4.3206077E-2,-1.2210551E-2,8.425E1,1.3747826E-2,-1.8943257E-3,3.471875E1,-4.316717E-2,1.5101582E-3,1.84021E-2,9.3652344E-1,-1.2210515E-2,-7.728474E-2,8.997489E-2,2.6915317E-2,5.5047177E-2,6.268327E-3,-3.094154E-3,-5.4188665E-2,2.8252373E-2,-1.4189222E-2],"split_indices":[25,41,6,33,0,16,39,18,0,50,13,0,21,0,0,31,5,32,29,33,9,0,24,0,0,33,11,0,0,6,10,13,29,0,0,50,0,0,0,5,0,18,0,25,10,0,0,9,0,0,9,0,0,12,23,0,0,0,0,0,0,0,0,0,0],"split_type":[0,0,0,0,0,0,0,0,0,0,0,0,0,0,0,0,0,0,0,0,0,0,0,0,0,0,0,0,0,0,0,0,0,0,0,0,0,0,0,0,0,0,0,0,0,0,0,0,0,0,0,0,0,0,0,0,0,0,0,0,0,0,0,0,0],"sum_hessian":[5.3579826E1,7.1129227E0,4.6466908E1,6.1044407E0,1.0084819E0,2.2450373E1,2.4016533E1,4.996959E0,1.1074816E0,6.307297E0,1.6143076E1,1.0395136E0,2.297702E1,3.984123E0,1.0128361E0,4.1923685E0,2.1149285E0,1.298638E1,3.1566956E0,1.1392679E1,1.1584341E1,1.9655708E0,2.2267978E0,1.0004356E0,1.1144929E0,1.0877284E1,2.109096E0,1.6612781E0,1.4954175E0,7.266365E0,4.126314E0,9.136683E0,2.4476569E0,1.1912969E0,1.0355009E0,9.429949E0,1.4473354E0,1.0104549E0,1.0986412E0,6.251722E0,1.0146431E0,3.061474E0,1.06484E0,6.346297E0,2.790387E0,1.1719191E0,1.2757378E0,7.8876925E0,1.5422561E0,1.2175215E0,5.0342E0,1.7316387E0,1.3298353E0,2.5341446E0,3.8121521E0,1.0700976E0,1.7202893E0,6.2082214E0,1.6794709E0,4.03029E0,1.0039101E0,1.0035757E0,1.530569E0,2.1776342E0,1.6345179E0],"tree_param":{"num_deleted":"0","num_feature":"54","num_nodes":"65","size_leaf_vector":"1"}},{"base_weights":[-1.7121289E-2,8.978175E-3,-1.7777437E-1,-1.2769894E-2,9.028328E-2,-1.1128047E-1,1.9850878E-3,-1.3869415E-1,1.0329842E-2,-7.668154E-2,-2.1357978E-2,2.7704008E-2,-1.26549E-1,1.07990324E-1,-2.5257788E-5,-8.815206E-3,-8.70571E-2,-3.1653855E-2,9.0050556E-2,-5.910573E-2,7.9677865E-2,-9.754095E-2,4.7760624E-2,1.6363336E-1,-6.939514E-2,-5.6408037E-2,1.78947E-3,4.5473296E-2,-1.1640844E-2,1.0329881E-1,2.81098E-2,-6.293559E-2,1.3276917E-2],"categories":[],"categories_nodes":[],"categories_segments":[],"categories_sizes":[],"default_left":[1,0,0,0,0,0,0,1,1,0,0,0,1,0,1,0,0,0,0,0,0,1,0,0,0,0,0,0,0,0,0,0,0],"id":24,"left_children":[1,3,5,7,-1,-1,-1,9,11,-1,-1,13,15,17,19,-1,-1,-1,-1,21,23,25,27,29,31,-1,-1,-1,-1,-1,-1,-1,-1],"loss_changes":[1.5573499E-1,1.23869196E-1,4.309319E-2,8.8247195E-2,0E0,0E0,0E0,5.978346E-5,6.569411E-2,0E0,0E0,5.3488664E-2,1.3119873E-2,8.758878E-2,9.350523E-2,0E0,0E0,0E0,0E0,5.1498402E-2,1.1715338E-1,1.3866454E-2,1.343168E-2,1.4716163E-2,2.36509E-2,0E0,0E0,0E0,0E0,0E0,0E0,0E0,0E0],"parents":[2147483647,0,0,1,1,2,2,3,3,7,7,8,8,11,11,12,12,13,13,14,14,19,19,20,20,21,21,22,22,23,23,24,24],"right_children":[2,4,6,8,-1,-1,-1,10,12,-1,-1,14,16,18,20,-1,-1,-1,-1,22,24,26,28,30,32,-1,-1,-1,-1,-1,-1,-1,-1],"split_conditions":[1.332283E-3,1.8706282E3,1.1362305E0,3.213501E-2,9.028328E-2,-1.1128047E-1,1.9850878E-3,9.145508E-1,7.725E1,-7.668154E-2,-2.1357978E-2,-1.2216797E0,3.1689453E-1,-9.1882324E-1,7.6086426E-1,-8.815206E-3,-8.70571E-2,-3.1653855E-2,9.0050556E-2,8.5253906E-1,7.0874023E-1,1.0087921E2,-1.0385132E-1,7.6828E-2,1.7834473E0,-5.6408037E-2,1.78947E-3,4.5473296E-2,-1.1640844E-2,1.0329881E-1,2.81098E-2,-6.293559E-2,1.3276917E-2],"split_indices":[38,15,35,13,0,0,0,31,21,0,0,51,13,3,51,0,0,0,0,25,3,10,51,3,51,0,0,0,0,0,0,0,0],"split_type":[0,0,0,0,0,0,0,0,0,0,0,0,0,0,0,0,0,0,0,0,0,0,0,0,0,0,0,0,0,0,0,0,0],"sum_hessian":[3.5761364E1,3.1575731E1,4.1856327E0,2.8845297E1,2.7304354E0,3.1779277E0,1.0077047E0,3.6955414E0,2.5149755E1,2.686979E0,1.0085623E0,2.3024797E1,2.124958E0,5.16777E0,1.7857027E1,1.0625359E0,1.062422E0,1.5671372E0,3.6006327E0,1.04036665E1,7.4533615E0,7.7158647E0,2.6878018E0,4.7055817E0,2.7477798E0,6.602785E0,1.1130798E0,1.497382E0,1.1904198E0,2.7015936E0,2.0039878E0,1.5333734E0,1.2144066E0],"tree_param":{"num_deleted":"0","num_feature":"54","num_nodes":"33","size_leaf_vector":"1"}},{"base_weights":[-2.9685214E-2,7.186557E-3,-2.1542014E-1,-6.7795284E-2,5.7354778E-2,-1.2115569E-1,-2.5368948E-2,-1.3767326E-1,2.104697E-2,1.09852746E-1,-3.330343E-2,-1.6399579E-1,7.8090763E-4,-3.60828E-2,5.1475275E-2,6.0642187E-2,1.0489232E-1,-6.3257605E-2,3.794741E-2,-9.3982406E-2,-1.4942986E-2,-3.543702E-2,1.2709243E-2,8.5165845E-3,7.65435E-2,-9.768269E-3,4.743621E-2,5.685763E-2,-4.3852497E-2,-2.858806E-2,2.612799E-2,-1.0608976E-2,4.7184832E-2,-3.5729323E-2,3.7122797E-3],"categories":[],"categories_nodes":[],"categories_segments":[],"categories_sizes":[],"default_left":[0,1,0,0,0,0,0,1,0,0,0,0,0,0,0,0,0,0,1,0,0,0,0,1,0,0,0,0,1,0,0,0,0,0,0],"id":25,"left_children":[1,3,5,7,9,-1,-1,11,13,15,17,19,-1,21,-1,23,-1,-1,25,-1,-1,-1,-1,27,-1,29,-1,31,33,-1,-1,-1,-1,-1,-1],"loss_changes":[2.1680899E-1,1.0618331E-1,1.0904953E-2,7.34175E-2,8.377993E-2,0E0,0E0,2.4045303E-2,3.1173903E-2,4.0849686E-2,5.089811E-2,1.1960238E-2,0E0,1.0782981E-2,0E0,4.064716E-2,0E0,0E0,1.3701397E-2,0E0,0E0,0E0,0E0,1.9267015E-2,0E0,1.3176884E-2,0E0,1.3368393E-2,5.8317636E-3,0E0,0E0,0E0,0E0,0E0,0E0],"parents":[2147483647,0,0,1,1,2,2,3,3,4,4,7,7,8,8,9,9,10,10,11,11,13,13,15,15,18,18,23,23,25,25,27,27,28,28],"right_children":[2,4,6,8,10,-1,-1,12,14,16,18,20,-1,22,-1,24,-1,-1,26,-1,-1,-1,-1,28,-1,30,-1,32,34,-1,-1,-1,-1,-1,-1],"split_conditions":[2.6929626E0,6.8908264E1,6.71875E1,5E0,1.0764551E2,-1.2115569E-1,-2.5368948E-2,1.2670898E-1,2.8515625E-1,4.5336914E-1,5E0,1.6955566E-1,7.8090763E-4,4.9560547E-1,5.1475275E-2,4.1455078E-1,1.0489232E-1,-6.3257605E-2,1.332283E-3,-9.3982406E-2,-1.4942986E-2,-3.543702E-2,1.2709243E-2,3.2983398E-1,7.65435E-2,2.6416016E-1,4.743621E-2,1.4450073E-2,-5.975342E-1,-2.858806E-2,2.612799E-2,-1.0608976E-2,4.7184832E-2,-3.5729323E-2,3.7122797E-3],"split_indices":[16,10,21,1,10,0,0,32,4,12,1,24,0,33,0,13,0,0,38,0,0,0,0,25,0,4,0,12,27,0,0,0,0,0,0],"split_type":[0,0,0,0,0,0,0,0,0,0,0,0,0,0,0,0,0,0,0,0,0,0,0,0,0,0,0,0,0,0,0,0,0,0,0],"sum_hessian":[3.0432396E1,2.6193764E1,4.238632E0,1.0359303E1,1.583446E1,3.2384357E0,1.0001966E0,5.4908743E0,4.8684287E0,9.893595E0,5.9408655E0,4.4683037E0,1.022571E0,3.1975243E0,1.6709045E0,7.7057858E0,2.1878095E0,2.237756E0,3.7031093E0,3.4501035E0,1.0181999E0,1.9448977E0,1.2526268E0,5.6257796E0,2.0800056E0,2.4651625E0,1.2379469E0,2.880826E0,2.7449539E0,1.4415146E0,1.0236478E0,1.0758915E0,1.8049346E0,1.5284818E0,1.2164719E0],"tree_param":{"num_deleted":"0","num_feature":"54","num_nodes":"35","size_leaf_vector":"1"}},{"base_weights":[2.9382762E-2,-6.823366E-2,3.7440795E-2,1.08993836E-1,1.5891531E-2,1.4811228E-1,4.6211105E-2,2.705709E-2,-7.471954E-2,8.172959E-2,1.9040525E-2,7.6456234E-2,-7.470776E-3,1.180744E-1,1.0401327E-2,4.554216E-3,-1.0371317E-1,4.6404917E-2,7.36718E-3,1.5124796E-2,-2.037474E-2,1.778935E-2,7.418188E-2,5.3680316E-2,-3.1306885E-2,-7.1186975E-2,-7.3246304E-3,9.3887635E-2,2.8796582E-3,-8.716466E-2,1.0203162E-3,1.2119975E-1,6.758824E-3,2.8315777E-2,-4.54473E-2,-2.3414083E-2,-7.349568E-2,2.68874E-2,-6.8362355E-2,7.166897E-2,1.0390269E-3,-1.9971851E-2,2.3966024E-2,-1.5088117E-2,2.941694E-2,-3.5332706E-2,2.3961433E-3,1.0076922E-2,-2.175665E-2,2.0653773E-3,4.0885158E-2],"categories":[],"categories_nodes":[],"categories_segments":[],"categories_sizes":[],"default_left":[0,0,0,0,1,0,1,0,0,0,0,1,0,0,0,0,0,0,0,0,0,0,0,0,0,0,0,0,1,0,1,0,0,0,0,1,0,0,0,0,0,0,0,0,0,0,0,0,0,0,0],"id":26,"left_children":[1,-1,3,5,7,9,11,13,15,-1,-1,17,19,21,23,-1,25,-1,-1,-1,-1,-1,-1,27,29,-1,-1,31,33,35,37,39,41,43,45,47,-1,49,-1,-1,-1,-1,-1,-1,-1,-1,-1,-1,-1,-1,-1],"loss_changes":[7.617618E-2,0E0,7.767272E-2,2.2010207E-2,4.3248087E-2,5.2329004E-3,1.0253934E-2,5.4881364E-2,1.2455998E-2,0E0,0E0,2.57265E-3,5.074011E-3,8.786298E-3,6.0135946E-2,0E0,1.030954E-2,0E0,0E0,0E0,0E0,0E0,0E0,3.2943543E-2,3.100787E-2,0E0,0E0,2.0705476E-2,1.1386054E-2,2.0542536E-2,4.5842286E-2,1.7707065E-2,8.101998E-3,1.2483589E-2,4.41435E-3,4.5844857E-3,0E0,1.314953E-2,0E0,0E0,0E0,0E0,0E0,0E0,0E0,0E0,0E0,0E0,0E0,0E0,0E0],"parents":[2147483647,0,0,2,2,3,3,4,4,5,5,6,6,7,7,8,8,11,11,12,12,13,13,14,14,16,16,23,23,24,24,27,27,28,28,29,29,30,30,31,31,32,32,33,33,34,34,35,35,37,37],"right_children":[2,-1,4,6,8,10,12,14,16,-1,-1,18,20,22,24,-1,26,-1,-1,-1,-1,-1,-1,28,30,-1,-1,32,34,36,38,40,42,44,46,48,-1,50,-1,-1,-1,-1,-1,-1,-1,-1,-1,-1,-1,-1,-1],"split_conditions":[4.8168945E-1,-6.823366E-2,1.7932129E-1,1.01379395E-1,2.722168E-1,9.4677734E-1,7.70625E1,1.612854E-2,2.8616428E2,8.172959E-2,1.9040525E-2,2.4731445E-1,6.3964844E-2,1.7453125E1,1.728125E1,4.554216E-3,1.6523438E0,4.6404917E-2,7.36718E-3,1.5124796E-2,-2.037474E-2,1.778935E-2,7.418188E-2,7.416992E-1,3.1982422E-1,-7.1186975E-2,-7.3246304E-3,6.582031E-1,4.5043945E-1,9.584961E-1,6.6748047E-1,9.7839355E-2,6.0577393E-3,1.5615234E0,1.1921875E1,6.1029053E1,-7.349568E-2,7.5E1,-6.8362355E-2,7.166897E-2,1.0390269E-3,-1.9971851E-2,2.3966024E-2,-1.5088117E-2,2.941694E-2,-3.5332706E-2,2.3961433E-3,1.0076922E-2,-2.175665E-2,2.0653773E-3,4.0885158E-2],"split_indices":[39,0,33,24,32,23,9,12,15,0,0,14,12,53,9,0,16,0,0,0,0,0,0,25,25,0,0,13,33,31,12,11,22,5,29,10,0,21,0,0,0,0,0,0,0,0,0,0,0,0,0],"split_type":[0,0,0,0,0,0,0,0,0,0,0,0,0,0,0,0,0,0,0,0,0,0,0,0,0,0,0,0,0,0,0,0,0,0,0,0,0,0,0,0,0,0,0,0,0,0,0,0,0,0,0],"sum_hessian":[5.2176735E1,1.6792349E0,5.04975E1,1.0748814E1,3.9748688E1,5.785118E0,4.963695E0,3.6012444E1,3.736244E0,4.6508565E0,1.1342618E0,2.9035487E0,2.0601463E0,4.6287904E0,3.1383652E1,1.1364177E0,2.5998263E0,1.8971963E0,1.0063524E0,1.0082965E0,1.05185E0,1.8271135E0,2.801677E0,1.5260932E1,1.612272E1,1.3955065E0,1.2043197E0,8.045212E0,7.2157207E0,5.2884855E0,1.0834234E1,5.82745E0,2.2177618E0,4.998775E0,2.216946E0,3.2338746E0,2.054611E0,9.798905E0,1.0353295E0,4.742744E0,1.0847058E0,1.0530996E0,1.1646621E0,1.7177259E0,3.281049E0,1.2053457E0,1.0116E0,1.0200509E0,2.2138236E0,7.6868825E0,2.1120229E0],"tree_param":{"num_deleted":"0","num_feature":"54","num_nodes":"51","size_leaf_vector":"1"}},{"base_weights":[-1.1240517E-2,1.3132961E-2,-1.4104855E-1,-1.3376281E-2,1.11297205E-1,-8.3034195E-2,-1.1388276E-2,9.656818E-2,-5.3274687E-2,1.494743E-1,-2.6519794E-2,-1.5237814E-2,1.5144163E-1,-1.2394957E-1,-4.930765E-3,8.5673906E-2,2.121158E-2,3.0029729E-2,-4.504313E-2,1.9507933E-2,8.532385E-2,-3.532473E-2,-1.6076936E-1,2.5899738E-2,-7.147401E-2,-5.0692514E-2,3.306002E-2,-4.545113E-3,-1.0100555E-1,9.36916E-2,-1.4329325E-2,-1.8543593E-3,6.258994E-2,-4.5401007E-2,4.3107368E-2,4.92131E-3,-4.075665E-2,4.0357478E-2,-7.5122346E-3],"categories":[],"categories_nodes":[],"categories_segments":[],"categories_sizes":[],"default_left":[0,1,0,0,0,0,0,0,0,0,0,0,0,0,1,0,0,0,0,0,0,0,0,0,0,0,0,0,0,1,0,0,0,0,0,0,0,0,0],"id":27,"left_children":[1,3,5,7,9,-1,-1,11,13,15,-1,17,19,21,23,-1,-1,-1,-1,-1,-1,25,27,29,-1,-1,-1,-1,-1,31,33,-1,-1,35,37,-1,-1,-1,-1],"loss_changes":[1.1516956E-1,8.2338065E-2,1.3223961E-2,1.1636906E-1,5.0047554E-2,0E0,0E0,4.5909688E-2,6.5155394E-2,6.1007887E-3,0E0,2.3717446E-2,3.8330108E-3,1.969865E-2,5.6770165E-2,0E0,0E0,0E0,0E0,0E0,0E0,3.0589528E-2,3.0772433E-2,3.145322E-2,0E0,0E0,0E0,0E0,0E0,1.3481956E-2,1.5870968E-2,0E0,0E0,1.1867296E-2,8.317733E-3,0E0,0E0,0E0,0E0],"parents":[2147483647,0,0,1,1,2,2,3,3,4,4,7,7,8,8,9,9,11,11,12,12,13,13,14,14,21,21,22,22,23,23,29,29,30,30,33,33,34,34],"right_children":[2,4,6,8,10,-1,-1,12,14,16,-1,18,20,22,24,-1,-1,-1,-1,-1,-1,26,28,30,-1,-1,-1,-1,-1,32,34,-1,-1,36,38,-1,-1,-1,-1],"split_conditions":[6E0,1.4196777E0,1.9111328E0,-1.3696289E0,1.3222656E0,-8.3034195E-2,-1.1388276E-2,-8.1103516E-1,2.47375E2,7.869873E-1,-2.6519794E-2,-2.008789E0,9.25625E1,-2.9742432E-1,7.41875E1,8.5673906E-2,2.121158E-2,3.0029729E-2,-4.504313E-2,1.9507933E-2,8.532385E-2,5.895233E-2,-4.1448975E-1,1.38625E2,-7.147401E-2,-5.0692514E-2,3.306002E-2,-4.545113E-3,-1.0100555E-1,1.4013672E-1,5.917969E-1,-1.8543593E-3,6.258994E-2,-4.4891357E-1,8.621216E-2,4.92131E-3,-4.075665E-2,4.0357478E-2,-7.5122346E-3],"split_indices":[1,51,5,51,3,0,0,3,50,3,0,51,50,51,21,0,0,0,0,0,0,3,3,26,0,0,0,0,0,13,8,0,0,51,3,0,0,0,0],"split_type":[0,0,0,0,0,0,0,0,0,0,0,0,0,0,0,0,0,0,0,0,0,0,0,0,0,0,0,0,0,0,0,0,0,0,0,0,0,0,0],"sum_hessian":[3.4815968E1,3.0068893E1,4.7470746E0,2.4355444E1,5.7134485E0,3.5846395E0,1.162435E0,6.1068883E0,1.8248556E1,4.709763E0,1.0036857E0,2.2482774E0,3.8586109E0,6.77709E0,1.1471466E1,3.411983E0,1.2977798E0,1.219276E0,1.0290015E0,1.005309E0,2.8533018E0,2.5642834E0,4.2128067E0,1.0040866E1,1.4305997E0,1.5533433E0,1.01094E0,1.1614887E0,3.051318E0,3.2444832E0,6.796383E0,1.0081788E0,2.2363045E0,4.5464334E0,2.2499492E0,2.0847235E0,2.4617102E0,1.1302613E0,1.1196879E0],"tree_param":{"num_deleted":"0","num_feature":"54","num_nodes":"39","size_leaf_vector":"1"}},{"base_weights":[-2.1706685E-2,7.155293E-3,-1.9812146E-1,1.5759552E-1,-1.5710019E-2,-3.0517096E-2,-1.1207925E-1,1.9504627E-2,1.0387018E-1,-9.119081E-2,3.1038133E-2,-1.3021897E-1,3.4567386E-2,-4.891419E-3,8.592472E-2,-1.7537393E-1,-4.0800005E-2,3.032106E-2,-6.251847E-2,-9.988485E-2,-3.3243846E-2,2.2947852E-2,-4.420723E-2,-3.7604477E-2,7.2341725E-2,-9.551077E-2,1.8700147E-2,1.3957515E-2,-3.385833E-2,-3.2703535E-4,1.2047593E-1,-5.6576867E-2,-1.0406379E-2,-2.3131093E-2,2.716902E-2,8.05602E-2,1.1562366E-2],"categories":[],"categories_nodes":[],"categories_segments":[],"categories_sizes":[],"default_left":[0,0,0,0,1,0,0,0,0,1,0,1,0,0,0,0,0,0,1,0,0,0,0,0,0,0,0,0,0,0,1,0,0,0,0,0,0],"id":28,"left_children":[1,3,5,7,9,-1,-1,-1,-1,11,13,15,-1,17,-1,19,21,23,25,-1,-1,-1,-1,27,29,31,-1,-1,-1,33,35,-1,-1,-1,-1,-1,-1],"loss_changes":[1.5641889E-1,9.578914E-2,1.7204732E-3,1.3718016E-2,8.9130305E-2,0E0,0E0,0E0,0E0,6.912187E-2,8.102709E-2,2.5444373E-2,0E0,2.949198E-2,0E0,1.630634E-4,2.0620333E-2,2.8736968E-2,2.1652812E-2,0E0,0E0,0E0,0E0,1.006151E-2,2.0933155E-2,3.4498312E-3,0E0,0E0,0E0,1.0994539E-2,1.0502495E-2,0E0,0E0,0E0,0E0,0E0,0E0],"parents":[2147483647,0,0,1,1,2,2,3,3,4,4,9,9,10,10,11,11,13,13,15,15,16,16,17,17,18,18,23,23,24,24,25,25,29,29,30,30],"right_children":[2,4,6,8,10,-1,-1,-1,-1,12,14,16,-1,18,-1,20,22,24,26,-1,-1,-1,-1,28,30,32,-1,-1,-1,34,36,-1,-1,-1,-1,-1,-1],"split_conditions":[2.918213E0,1.4189453E0,1.1729686E3,5E0,2.9078125E1,-3.0517096E-2,-1.1207925E-1,1.9504627E-2,1.0387018E-1,4.2816162E-2,4.4580078E-1,3.0273438E-1,3.4567386E-2,1.06625E2,8.592472E-2,5E0,8.5253906E-1,7.398193E1,4.4433594E-2,-9.988485E-2,-3.3243846E-2,2.2947852E-2,-4.420723E-2,1.46640625E1,1.5332031E-1,6E0,1.8700147E-2,1.3957515E-2,-3.385833E-2,2.741546E2,1.4697266E-1,-5.6576867E-2,-1.0406379E-2,-2.3131093E-2,2.716902E-2,8.05602E-2,1.1562366E-2],"split_indices":[16,5,15,1,9,0,0,0,0,40,12,33,0,9,0,1,16,10,40,0,0,0,0,53,13,1,0,0,0,15,24,0,0,0,0,0,0],"split_type":[0,0,0,0,0,0,0,0,0,0,0,0,0,0,0,0,0,0,0,0,0,0,0,0,0,0,0,0,0,0,0,0,0,0,0,0,0],"sum_hessian":[2.9442072E1,2.612705E1,3.315022E0,2.6696951E0,2.3457355E1,1.0628988E0,2.2521234E0,1.321781E0,1.347914E0,8.607988E0,1.4849366E1,7.0737944E0,1.534194E0,1.2599682E1,2.2496848E0,4.061533E0,3.0122614E0,8.114954E0,4.484728E0,2.6362262E0,1.4253067E0,1.0806773E0,1.931584E0,3.141645E0,4.9733086E0,3.404656E0,1.0800718E0,1.0122056E0,2.1294394E0,2.3773708E0,2.5959377E0,2.337698E0,1.066958E0,1.3753653E0,1.0020056E0,1.3692347E0,1.226703E0],"tree_param":{"num_deleted":"0","num_feature":"54","num_nodes":"37","size_leaf_vector":"1"}},{"base_weights":[2.0393696E-2,2.6719088E-2,-7.540877E-2,7.948921E-2,8.059397E-3,2.1883417E-2,1.1616799E-1,1.9764936E-2,-6.746019E-2,7.2876014E-2,-4.389964E-2,2.8823812E-3,1.3621098E-1,3.034978E-2,-4.237623E-2,-8.490603E-2,2.3001456E-3,5.057048E-2,6.781517E-3,6.154279E-3,-3.638728E-2,7.759991E-2,7.7310596E-3,6.610235E-2,5.7732537E-3,-7.0692166E-3,-4.8975203E-2,-7.446373E-3,-5.8273796E-2,-2.1555526E-3,8.4974475E-2,3.0513735E-2,-4.550133E-2,2.7839607E-2,-2.6540443E-2,1.281501E-2,-1.7440844E-2,2.6646158E-2,1.12280175E-1,5.2596677E-2,-4.193891E-2,-7.035734E-2,1.2809843E-2,3.4634333E-2,-1.4562031E-2,3.1948682E-2,-2.31614E-2,3.5300814E-3,6.7281246E-2,3.456352E-2,-8.476428E-3,7.632295E-3,-4.4775344E-2,-3.2385455E-3,-4.365932E-2],"categories":[],"categories_nodes":[],"categories_segments":[],"categories_sizes":[],"default_left":[1,0,0,0,1,0,0,1,0,0,0,0,0,0,0,0,0,0,0,0,0,0,0,0,1,0,0,0,0,0,0,0,0,0,0,0,0,0,0,0,1,0,0,0,0,0,0,0,0,0,0,0,0,0,0],"id":29,"left_children":[1,3,-1,5,7,9,11,13,15,17,19,-1,21,23,25,27,-1,-1,-1,-1,-1,-1,-1,29,31,33,-1,-1,-1,35,37,39,41,43,-1,-1,-1,45,47,49,51,53,-1,-1,-1,-1,-1,-1,-1,-1,-1,-1,-1,-1,-1],"loss_changes":[6.0499325E-2,4.9710292E-2,0E0,2.5443614E-2,3.571155E-2,2.4616534E-2,1.6608305E-2,2.3941781E-2,7.236475E-3,5.2882694E-3,6.433622E-3,0E0,1.2752652E-2,2.5990475E-2,9.962936E-3,8.090448E-3,0E0,0E0,0E0,0E0,0E0,0E0,0E0,1.5810043E-2,2.5341935E-2,8.5427025E-3,0E0,0E0,0E0,4.1701077E-3,1.2183733E-2,2.354208E-2,1.3376333E-2,9.467689E-3,0E0,0E0,0E0,1.4782318E-2,1.353655E-2,1.3432045E-2,1.1366348E-2,4.980225E-3,0E0,0E0,0E0,0E0,0E0,0E0,0E0,0E0,0E0,0E0,0E0,0E0,0E0],"parents":[2147483647,0,0,1,1,3,3,4,4,5,5,6,6,7,7,8,8,9,9,10,10,12,12,13,13,14,14,15,15,23,23,24,24,25,25,29,29,30,30,31,31,32,32,33,33,37,37,38,38,39,39,40,40,41,41],"right_children":[2,4,-1,6,8,10,12,14,16,18,20,-1,22,24,26,28,-1,-1,-1,-1,-1,-1,-1,30,32,34,-1,-1,-1,36,38,40,42,44,-1,-1,-1,46,48,50,52,54,-1,-1,-1,-1,-1,-1,-1,-1,-1,-1,-1,-1,-1],"split_conditions":[2.854004E-1,2.0446777E-1,-7.540877E-2,8.408203E-1,6.505E2,4.7558594E-1,3.0883789E-2,7.084961E-1,1.009375E2,4.4E1,5.0689697E-2,2.8823812E-3,9.4921875E-1,1.68125E1,6.598389E1,5.556888E1,2.3001456E-3,5.057048E-2,6.781517E-3,6.154279E-3,-3.638728E-2,7.759991E-2,7.7310596E-3,5.6030273E-2,4.8332214E-3,3.508911E-1,-4.8975203E-2,-7.446373E-3,-5.8273796E-2,5.869495E2,1.3421875E1,4.4726562E-1,6.365625E1,9.085083E-2,-2.6540443E-2,1.281501E-2,-1.7440844E-2,6.333008E-1,1.5058594E0,5.645E2,7.879639E-2,2.1313477E-1,1.2809843E-2,3.4634333E-2,-1.4562031E-2,3.1948682E-2,-2.31614E-2,3.5300814E-3,6.7281246E-2,3.456352E-2,-8.476428E-3,7.632295E-3,-4.4775344E-2,-3.2385455E-3,-4.365932E-2],"split_indices":[40,33,0,16,6,25,32,12,9,21,32,0,23,9,10,10,0,0,0,0,0,0,0,14,11,3,0,0,0,15,29,14,21,8,0,0,0,33,5,6,13,4,0,0,0,0,0,0,0,0,0,0,0,0,0],"split_type":[0,0,0,0,0,0,0,0,0,0,0,0,0,0,0,0,0,0,0,0,0,0,0,0,0,0,0,0,0,0,0,0,0,0,0,0,0,0,0,0,0,0,0,0,0,0,0,0,0,0,0,0,0,0,0],"sum_hessian":[5.1142895E1,5.0134613E1,1.0082804E0,1.2245124E1,3.7889492E1,5.3847456E0,6.8603783E0,3.344396E1,4.4455338E0,2.9726408E0,2.4121048E0,1.2519355E0,5.608443E0,2.9013525E1,4.4304323E0,3.4355311E0,1.0100025E0,1.5356402E0,1.4370004E0,1.0133114E0,1.3987935E0,4.599776E0,1.0086668E0,1.1131043E1,1.788248E1,3.3985143E0,1.0319183E0,1.5271274E0,1.9084036E0,2.6028118E0,8.528232E0,1.2335418E1,5.547063E0,2.1569736E0,1.2415406E0,1.5249295E0,1.0778823E0,3.3493836E0,5.1788483E0,9.663976E0,2.671442E0,4.1184483E0,1.4286147E0,1.1237023E0,1.0332714E0,2.2996938E0,1.0496898E0,1.1351887E0,4.0436597E0,7.8130617E0,1.8509141E0,1.5220996E0,1.1493423E0,1.1540182E0,2.96443E0],"tree_param":{"num_deleted":"0","num_feature":"54","num_nodes":"55","size_leaf_vector":"1"}},{"base_weights":[-7.3179784E-3,1.2981071E-2,-1.3845858E-1,-1.6007078E-3,7.278034E-2,-1.7658962E-1,1.1181647E-3,1.337147E-2,-5.947933E-2,-2.8266711E-2,-1.010212E-1,-1.046553E-1,2.8142743E-2,-6.737132E-2,-9.826439E-3,4.6532255E-2,-5.4493032E-2,5.7637293E-2,-3.7097886E-2,3.1565216E-3,-6.392913E-2,8.776842E-2,1.7105523E-2,-3.9512046E-2,1.1673535E-2,-2.1010073E-2,2.1285057E-2,-1.3550914E-2,5.3055152E-2,-1.0117358E-2,3.875137E-2],"categories":[],"categories_nodes":[],"categories_segments":[],"categories_sizes":[],"default_left":[1,0,0,1,0,0,0,0,0,0,0,0,0,0,0,0,0,0,0,0,0,0,1,0,0,0,0,0,0,0,0],"id":30,"left_children":[1,3,5,7,-1,9,-1,11,-1,-1,-1,13,15,-1,-1,17,19,21,23,25,-1,27,29,-1,-1,-1,-1,-1,-1,-1,-1],"loss_changes":[9.494846E-2,6.0581986E-2,2.6018128E-2,5.2744128E-2,0E0,9.87649E-5,0E0,4.9524687E-2,0E0,0E0,0E0,5.494315E-3,3.9817933E-2,0E0,0E0,2.1276545E-2,2.1239866E-2,2.1193825E-2,9.508561E-3,8.4385425E-3,0E0,2.4824083E-2,2.224006E-2,0E0,0E0,0E0,0E0,0E0,0E0,0E0,0E0],"parents":[2147483647,0,0,1,1,2,2,3,3,5,5,7,7,11,11,12,12,15,15,16,16,17,17,18,18,19,19,21,21,22,22],"right_children":[2,4,6,8,-1,10,-1,12,-1,-1,-1,14,16,-1,-1,18,20,22,24,26,-1,28,30,-1,-1,-1,-1,-1,-1,-1,-1],"split_conditions":[1.332283E-3,2.0424572E3,1.0974121E0,7.725E1,7.278034E-2,-8.692627E-1,1.1181647E-3,8.5754395E-2,-5.947933E-2,-2.8266711E-2,-1.010212E-1,9.2578125E-1,3.1054688E-1,-6.737132E-2,-9.826439E-3,6E0,5E0,2.203125E0,5.8447266E-1,1.697998E-1,-6.392913E-2,5.0875E1,7.6086426E-1,-3.9512046E-2,1.1673535E-2,-2.1010073E-2,2.1285057E-2,-1.3550914E-2,5.3055152E-2,-1.0117358E-2,3.875137E-2],"split_indices":[38,15,35,21,0,35,0,25,0,0,0,31,4,0,0,1,1,28,25,14,0,50,51,0,0,0,0,0,0,0,0],"split_type":[0,0,0,0,0,0,0,0,0,0,0,0,0,0,0,0,0,0,0,0,0,0,0,0,0,0,0,0,0,0,0],"sum_hessian":[3.3992523E1,3.0216389E1,3.7761338E0,2.8112373E1,2.1040149E0,2.7702246E0,1.0059092E0,2.5717478E1,2.3948965E0,1.0480185E0,1.7222061E0,2.1837356E0,2.3533741E1,1.1806663E0,1.0030694E0,1.9607294E1,3.9264476E0,1.7583263E1,2.0240307E0,2.7346034E0,1.1918442E0,9.417164E0,8.1661E0,1.013599E0,1.0104316E0,1.2433345E0,1.4912689E0,1.2308834E0,8.186281E0,5.4571934E0,2.708906E0],"tree_param":{"num_deleted":"0","num_feature":"54","num_nodes":"31","size_leaf_vector":"1"}},{"base_weights":[-1.5217185E-2,1.7833162E-2,-1.3532294E-1,-2.263277E-2,1.055418E-1,-1.7257638E-1,-1.325173E-2,-9.783908E-2,1.3487071E-2,1.5457645E-1,2.8647224E-3,-1.0049493E-1,-2.7587384E-2,-1.251023E-1,7.882999E-3,6.869687E-2,-5.2776027E-2,2.5653364E-2,9.669872E-2,2.7217852E-2,-2.856293E-2,-7.429707E-2,-9.943966E-3,1.6482864E-2,7.394015E-2,-8.599707E-2,1.433426E-2,-2.9434893E-2,5.3888086E-2,-1.07436694E-1,-5.9478157E-3,-2.6687516E-2,5.0858264E-3,3.4249637E-2,4.751432E-3,-6.364723E-2,-1.5287669E-2],"categories":[],"categories_nodes":[],"categories_segments":[],"categories_sizes":[],"default_left":[0,0,0,1,0,0,0,0,0,0,0,0,0,0,0,0,0,0,0,0,0,0,0,0,0,0,0,0,0,0,0,0,0,0,0,0,0],"id":31,"left_children":[1,3,5,7,9,11,-1,13,15,17,19,-1,-1,21,-1,23,25,-1,-1,-1,-1,-1,-1,27,-1,29,-1,31,33,35,-1,-1,-1,-1,-1,-1,-1],"loss_changes":[1.2009057E-1,8.803615E-2,2.1832049E-2,4.84126E-2,3.8803384E-2,4.492089E-3,0E0,1.9768864E-2,4.9685854E-2,1.115194E-2,1.4056471E-2,0E0,0E0,8.774854E-3,0E0,2.7754504E-2,1.9478403E-2,0E0,0E0,0E0,0E0,0E0,0E0,1.1077628E-2,0E0,6.2146075E-3,0E0,3.5083715E-3,1.553122E-3,1.5008599E-3,0E0,0E0,0E0,0E0,0E0,0E0,0E0],"parents":[2147483647,0,0,1,1,2,2,3,3,4,4,5,5,7,7,8,8,9,9,10,10,13,13,15,15,16,16,23,23,25,25,27,27,28,28,29,29],"right_children":[2,4,6,8,10,12,-1,14,16,18,20,-1,-1,22,-1,24,26,-1,-1,-1,-1,-1,-1,28,-1,30,-1,32,34,36,-1,-1,-1,-1,-1,-1,-1],"split_conditions":[2.1330261E0,3.5533545E2,5.534375E1,2.9078125E1,1.5029907E0,6E0,-1.325173E-2,3.0859375E-1,9.841821E1,2.915039E-1,1.78E2,-1.0049493E-1,-2.7587384E-2,7.867163E1,7.882999E-3,4.4482422E-1,6E0,2.5653364E-2,9.669872E-2,2.7217852E-2,-2.856293E-2,-7.429707E-2,-9.943966E-3,7.6536865E1,7.394015E-2,1.8286133E-1,1.433426E-2,2.614746E-1,8.8453094E1,5E0,-5.9478157E-3,-2.6687516E-2,5.0858264E-3,3.4249637E-2,4.751432E-3,-6.364723E-2,-1.5287669E-2],"split_indices":[16,15,21,9,16,1,0,4,10,33,50,0,0,10,0,13,1,0,0,0,0,0,0,10,0,24,0,4,10,1,0,0,0,0,0,0,0],"split_type":[0,0,0,0,0,0,0,0,0,0,0,0,0,0,0,0,0,0,0,0,0,0,0,0,0,0,0,0,0,0,0,0,0,0,0,0,0],"sum_hessian":[2.8645105E1,2.3131397E1,5.5137086E0,1.6336308E1,6.7950892E0,3.6710565E0,1.842652E0,4.7459254E0,1.1590383E1,4.256761E0,2.5383282E0,2.3824677E0,1.288589E0,3.7457972E0,1.0001284E0,6.3024826E0,5.2878995E0,1.7972983E0,2.459463E0,1.4147406E0,1.1235876E0,2.7250578E0,1.0207393E0,4.526104E0,1.7763786E0,3.7161806E0,1.5717187E0,2.1275074E0,2.3985968E0,2.533351E0,1.1828296E0,1.1093378E0,1.0181698E0,1.3958169E0,1.0027797E0,1.4917804E0,1.0415705E0],"tree_param":{"num_deleted":"0","num_feature":"54","num_nodes":"37","size_leaf_vector":"1"}},{"base_weights":[1.3799608E-2,2.3065174E-2,-8.888551E-2,1.1853273E-2,1.08612366E-1,-6.82102E-2,-3.0742176E-6,8.269834E-2,-1.2701696E-3,2.8192336E-2,7.682863E-2,1.0359322E-1,-9.316549E-3,2.0354478E-2,-4.3909546E-2,3.4240454E-2,-1.320765E-2,1.1658268E-1,1.0607478E-2,-1.3473561E-2,4.249474E-2,-9.5094904E-2,-9.797717E-3,6.562993E-2,1.6790621E-2,3.8851645E-2,-3.6415797E-2,5.226566E-2,-1.7282128E-2,-3.956495E-3,-1.188964E-1,2.9959625E-2,-8.629373E-2,4.189369E-2,-9.331269E-3,-6.36486E-2,1.2928118E-2,-1.24872755E-2,6.6186085E-2,-7.228444E-2,-1.394741E-2,-2.3801267E-2,5.4150384E-2,-7.455803E-3,-5.578572E-2,-9.199109E-4,-5.0000295E-2,2.4645966E-2,-1.4595254E-2,4.1600596E-2,-7.93438E-3,4.973048E-3,4.5551594E-2],"categories":[],"categories_nodes":[],"categories_segments":[],"categories_sizes":[],"default_left":[1,1,0,0,0,0,0,1,1,0,0,0,0,1,0,0,0,1,0,1,0,1,1,0,0,0,1,0,0,0,0,0,0,0,0,0,0,0,1,0,0,0,0,0,0,0,0,0,0,0,0,0,0],"id":32,"left_children":[1,3,5,7,9,-1,-1,11,13,15,-1,17,-1,19,21,-1,-1,23,-1,25,27,29,31,-1,-1,33,35,37,-1,-1,39,41,43,-1,-1,45,47,-1,49,-1,-1,-1,51,-1,-1,-1,-1,-1,-1,-1,-1,-1,-1],"loss_changes":[5.080846E-2,4.455941E-2,1.8789187E-2,4.04399E-2,1.5288457E-2,0E0,0E0,1.6318459E-2,3.555206E-2,8.781527E-3,0E0,3.7182719E-3,0E0,1.9763138E-2,2.1705382E-2,0E0,0E0,1.41E-3,0E0,1.44941835E-2,1.3648409E-2,9.5798E-3,2.9637164E-2,0E0,0E0,1.1397017E-2,1.16946595E-2,1.7088603E-2,0E0,0E0,5.105268E-3,1.49522405E-2,4.2901263E-3,0E0,0E0,1.1908963E-2,7.1185916E-3,0E0,1.8685382E-2,0E0,0E0,0E0,8.069977E-3,0E0,0E0,0E0,0E0,0E0,0E0,0E0,0E0,0E0,0E0],"parents":[2147483647,0,0,1,1,2,2,3,3,4,4,7,7,8,8,9,9,11,11,13,13,14,14,17,17,19,19,20,20,21,21,22,22,25,25,26,26,27,27,30,30,31,31,32,32,35,35,36,36,38,38,42,42],"right_children":[2,4,6,8,10,-1,-1,12,14,16,-1,18,-1,20,22,-1,-1,24,-1,26,28,30,32,-1,-1,34,36,38,-1,-1,40,42,44,-1,-1,46,48,-1,50,-1,-1,-1,52,-1,-1,-1,-1,-1,-1,-1,-1,-1,-1],"split_conditions":[4.140625E-1,7.3339844E-1,1.2189941E0,1.612854E-2,1.1478271E0,-6.82102E-2,-3.0742176E-6,1.3305664E-1,4.75E1,1.220625E2,7.682863E-2,5.815E2,-9.316549E-3,1.0913086E-1,3.1982422E-1,3.4240454E-2,-1.320765E-2,3.1811523E-1,1.0607478E-2,-1.0578613E0,1.2619629E0,3.628125E1,3.7353516E-1,6.562993E-2,1.6790621E-2,1.2316895E0,7.967529E-1,-1.105957E0,-1.7282128E-2,-3.956495E-3,9.113086E1,8.251953E-1,4.078125E1,4.189369E-2,-9.331269E-3,7.8027344E-1,1.9989014E-2,-1.24872755E-2,1.3830566E-1,-7.228444E-2,-1.394741E-2,-2.3801267E-2,7.28125E1,-7.455803E-3,-5.578572E-2,-9.199109E-4,-5.0000295E-2,2.4645966E-2,-1.4595254E-2,4.1600596E-2,-7.93438E-3,4.973048E-3,4.5551594E-2],"split_indices":[41,39,16,12,16,0,0,32,21,50,0,6,0,14,25,0,0,33,0,19,3,9,12,0,0,27,8,3,0,0,10,31,9,0,0,25,11,0,32,0,0,0,21,0,0,0,0,0,0,0,0,0,0],"split_type":[0,0,0,0,0,0,0,0,0,0,0,0,0,0,0,0,0,0,0,0,0,0,0,0,0,0,0,0,0,0,0,0,0,0,0,0,0,0,0,0,0,0,0,0,0,0,0,0,0,0,0,0,0],"sum_hessian":[5.0247078E1,4.67996E1,3.4474795E0,4.2383354E1,4.416246E0,1.8976662E0,1.5498133E0,5.7955136E0,3.658784E1,2.169264E0,2.246982E0,4.7862515E0,1.009262E0,2.4622915E1,1.1964926E1,1.1021E0,1.0671642E0,3.7756877E0,1.010564E0,9.895325E0,1.4727591E1,4.070034E0,7.8948917E0,2.7143002E0,1.0613875E0,2.804818E0,7.0905066E0,1.3355843E1,1.3717481E0,1.1586181E0,2.9114158E0,5.5952287E0,2.299663E0,1.3181425E0,1.4866753E0,4.3821244E0,2.7083821E0,1.9182057E0,1.1437637E1,1.8116806E0,1.0997351E0,1.1001263E0,4.4951024E0,1.0171707E0,1.2824923E0,2.0119116E0,2.3702128E0,1.3620884E0,1.3462936E0,9.46167E0,1.9759673E0,2.6246078E0,1.8704946E0],"tree_param":{"num_deleted":"0","num_feature":"54","num_nodes":"53","size_leaf_vector":"1"}},{"base_weights":[-6.5860185E-3,9.936261E-3,-1.1755045E-1,-1.1822452E-2,7.6442376E-2,-1.532641E-1,1.4678403E-3,1.811437E-2,-1.222702E-1,3.1308646E-3,1.06983274E-1,-2.2862282E-2,-8.916702E-2,4.7492355E-2,-3.8064472E-2,8.107979E-3,-7.975968E-2,-1.743316E-2,2.2765344E-2,1.2293403E-1,1.1234911E-2,-1.3128534E-2,7.032025E-2,-8.920512E-2,6.636457E-2,1.7731369E-2,7.594653E-2,-3.3371758E-2,2.6520781E-2,3.5694625E-2,1.103992E-1,1.1942538E-2,-1.2055027E-1,4.8900295E-2,9.0281945E-4,-1.4234323E-2,3.3772115E-2,-4.3341678E-2,1.050678E-1,9.6746944E-2,-7.991293E-3,-7.488822E-2,-1.0461379E-2,4.6212436E-3,-3.4659225E-2,6.911938E-2,5.631282E-3],"categories":[],"categories_nodes":[],"categories_segments":[],"categories_sizes":[],"default_left":[1,1,0,1,0,0,0,1,0,0,0,0,0,0,0,0,0,0,0,0,0,0,0,0,0,0,0,0,0,1,1,0,1,0,0,0,0,0,0,0,0,0,0,0,0,0,0],"id":33,"left_children":[1,3,5,7,9,11,-1,13,15,17,19,-1,-1,21,23,-1,-1,-1,-1,25,-1,27,29,31,33,-1,-1,-1,35,37,39,-1,41,-1,-1,-1,-1,43,45,-1,-1,-1,-1,-1,-1,-1,-1],"loss_changes":[6.4443104E-2,4.5708347E-2,2.0031974E-2,8.22157E-2,1.7054368E-2,1.3602003E-3,0E0,3.466221E-2,2.9868297E-2,6.9268057E-3,4.5878515E-3,0E0,0E0,1.9627502E-2,4.538974E-2,0E0,0E0,0E0,0E0,5.6655034E-3,0E0,1.1421422E-2,9.903707E-3,2.1977566E-2,5.917744E-3,0E0,0E0,0E0,9.424994E-3,4.2002484E-2,4.6633452E-2,0E0,9.630658E-3,0E0,0E0,0E0,0E0,5.968744E-3,1.066976E-2,0E0,0E0,0E0,0E0,0E0,0E0,0E0,0E0],"parents":[2147483647,0,0,1,1,2,2,3,3,4,4,5,5,7,7,8,8,9,9,10,10,13,13,14,14,19,19,21,21,22,22,23,23,24,24,28,28,29,29,30,30,32,32,37,37,38,38],"right_children":[2,4,6,8,10,12,-1,14,16,18,20,-1,-1,22,24,-1,-1,-1,-1,26,-1,28,30,32,34,-1,-1,-1,36,38,40,-1,42,-1,-1,-1,-1,44,46,-1,-1,-1,-1,-1,-1,-1,-1],"split_conditions":[1.8520355E-3,1.2114258E0,1.0568848E0,-2.989502E-1,7.867432E-2,-8.692627E-1,1.4678403E-3,6.50918E1,-7.163086E-1,5.283203E-1,1.5765625E1,-2.2862282E-2,-8.916702E-2,2.2766113E-1,1.00073364E2,8.107979E-3,-7.975968E-2,-1.743316E-2,2.2765344E-2,5.834375E1,1.1234911E-2,5.6396484E-1,3.4069824E-1,-1.4504395E0,1.48515625E1,1.7731369E-2,7.594653E-2,-3.3371758E-2,1.4904785E-1,2.3654175E-1,1.6772461E-1,1.1942538E-2,7.305908E-1,4.8900295E-2,9.0281945E-4,-1.4234323E-2,3.3772115E-2,-1.4304199E0,-2.5860596E-1,9.6746944E-2,-7.991293E-3,-7.488822E-2,-1.0461379E-2,4.6212436E-3,-3.4659225E-2,6.911938E-2,5.631282E-3],"split_indices":[38,27,35,27,24,35,0,10,3,25,29,0,0,13,10,0,0,0,0,26,0,33,3,51,29,0,0,0,14,19,51,0,51,0,0,0,0,51,3,0,0,0,0,0,0,0,0],"split_type":[0,0,0,0,0,0,0,0,0,0,0,0,0,0,0,0,0,0,0,0,0,0,0,0,0,0,0,0,0,0,0,0,0,0,0,0,0,0,0,0,0,0,0,0,0,0,0],"sum_hessian":[3.3512707E1,2.996192E1,3.550787E0,2.3195362E1,6.7665586E0,2.5290854E0,1.0217016E0,1.89067E1,4.2886624E0,2.3141356E0,4.452423E0,1.0119829E0,1.5171025E0,1.251616E1,6.390539E0,1.0287193E0,3.259943E0,1.314134E0,1.0000017E0,3.3630793E0,1.0893439E0,3.540099E0,8.976061E0,4.387627E0,2.002912E0,1.3897866E0,1.9732926E0,1.2144872E0,2.3256118E0,5.829961E0,3.1461005E0,1.0038463E0,3.3837807E0,1.0007213E0,1.0021906E0,1.1244265E0,1.2011853E0,2.9005852E0,2.9293754E0,1.577732E0,1.5683686E0,2.22709E0,1.156691E0,1.1721107E0,1.7284745E0,1.8141762E0,1.1151992E0],"tree_param":{"num_deleted":"0","num_feature":"54","num_nodes":"47","size_leaf_vector":"1"}},{"base_weights":[-1.2233708E-2,-8.384728E-2,9.417345E-3,1.2509723E-1,-1.2468826E-2,1.5571485E-2,8.455342E-2,-7.518983E-2,2.4981849E-2,-1.0919854E-1,2.8291738E-2,5.700083E-2,-5.5876054E-2,-7.531028E-2,-3.099245E-2,2.6710661E-2,7.785017E-2,-4.2326603E-2,1.2670093E-2,-3.2085247E-2,1.433006E-2,-3.437548E-2,4.523673E-2,6.4422674E-2,-1.765169E-2,-4.4431444E-3,3.882252E-2],"categories":[],"categories_nodes":[],"categories_segments":[],"categories_sizes":[],"default_left":[0,0,0,0,1,0,0,1,0,0,0,0,1,0,1,0,0,0,0,0,0,0,0,0,0,0,0],"id":34,"left_children":[1,-1,3,5,7,-1,-1,9,11,13,-1,15,17,-1,19,21,-1,-1,-1,-1,-1,-1,23,25,-1,-1,-1],"loss_changes":[9.936143E-2,0E0,6.851656E-2,1.2505889E-2,5.6252338E-2,0E0,0E0,4.6080284E-2,4.265293E-2,1.936382E-2,0E0,2.996846E-2,1.3432021E-2,0E0,9.414908E-3,2.0692296E-2,0E0,0E0,0E0,0E0,0E0,0E0,1.6071886E-2,8.023102E-3,0E0,0E0,0E0],"parents":[2147483647,0,0,2,2,3,3,4,4,7,7,8,8,9,9,11,11,12,12,14,14,15,15,22,22,23,23],"right_children":[2,-1,4,6,8,-1,-1,10,12,14,-1,16,18,-1,20,22,-1,-1,-1,-1,-1,-1,24,26,-1,-1,-1],"split_conditions":[2.684021E-2,-8.384728E-2,1.4384766E0,5E0,6.466797E1,1.5571485E-2,8.455342E-2,4.0924072E-2,1.175E2,5E0,2.8291738E-2,6.9677734E-1,4.4158936E-2,-7.531028E-2,4.3425E2,-1.3742676E0,7.785017E-2,-4.2326603E-2,1.2670093E-2,-3.2085247E-2,1.433006E-2,-3.437548E-2,1.3041992E0,1.2481689E-2,-1.765169E-2,-4.4431444E-3,3.882252E-2],"split_indices":[32,0,5,1,10,0,0,40,9,1,0,13,40,0,6,8,0,0,0,0,0,0,8,12,0,0,0],"split_type":[0,0,0,0,0,0,0,0,0,0,0,0,0,0,0,0,0,0,0,0,0,0,0,0,0,0,0],"sum_hessian":[2.805091E1,2.6045017E0,2.544641E1,3.298149E0,2.214826E1,1.5968156E0,1.7013335E0,7.903712E0,1.4244548E1,6.418507E0,1.4852049E0,1.0415253E1,3.8292947E0,3.5907269E0,2.82778E0,8.941727E0,1.4735259E0,2.7962039E0,1.0330908E0,1.7684513E0,1.0593288E0,1.0126544E0,7.9290724E0,6.565243E0,1.3638296E0,1.0533073E0,5.511935E0],"tree_param":{"num_deleted":"0","num_feature":"54","num_nodes":"27","size_leaf_vector":"1"}},{"base_weights":[1.1492563E-2,-5.6154784E-2,1.8019697E-2,-4.593718E-2,2.3577683E-2,6.035535E-3,6.0716495E-2,1.9604873E-2,-5.6345265E-2,7.256115E-2,-1.7624894E-2,5.1619563E-2,9.530523E-3,1.0007537E-2,-8.409347E-2,-1.0697181E-2,8.202406E-2,4.4372927E-2,-2.0773478E-2,-1.1160243E-2,-5.8718648E-2,9.12556E-2,-5.236394E-4,7.828507E-2,1.0831284E-2,-1.4475425E-3,-5.922752E-2,1.01158805E-1,9.735311E-4,3.1808924E-3,4.789852E-2,1.4895167E-2,-2.458443E-2,-1.5698073E-2,2.6654623E-2,4.198407E-3,-4.8973758E-2,5.4073714E-2,1.2093288E-2],"categories":[],"categories_nodes":[],"categories_segments":[],"categories_sizes":[],"default_left":[0,0,0,0,1,1,1,0,1,1,0,0,0,0,0,0,0,0,0,0,0,0,0,0,0,0,0,0,0,0,0,0,0,0,0,0,0,0,0],"id":35,"left_children":[1,-1,3,-1,5,7,9,11,13,15,-1,-1,17,-1,19,-1,21,23,25,-1,-1,27,-1,29,31,33,35,37,-1,-1,-1,-1,-1,-1,-1,-1,-1,-1,-1],"loss_changes":[4.299511E-2,0E0,3.2110125E-2,0E0,3.0553887E-2,2.933023E-2,1.9739274E-2,2.2716966E-2,1.4853185E-2,1.4008082E-2,0E0,0E0,2.8592976E-2,0E0,7.1650445E-3,0E0,9.85603E-3,1.3381349E-2,1.0836909E-2,0E0,0E0,9.944014E-3,0E0,